0.03868885	-0.03174182	0.03614061	0.04885358	0.035671424	-0.03061868	-0.006044578	-0.007236492	0.000792671	-0.025699914	0.04774708	0.045214448	-0.01558695	0.0005664602	-0.03928099	0.02780677
-0.013836455	-0.03416226	0.03162572	-0.00372665	0.00037046522	-0.00018336624	0.012111247	0.039604116	-0.014527284	0.021169636	-0.005181931	-0.015891958	0.03806928	-0.041739784	0.04483128	-0.04529364
0.017708246	0.038017955	-0.011128116	0.009488989	-0.047430754	0.02485	-0.010263097	0.009592809	0.012050308	0.031336572	-0.033260085	0.019306187	0.007972728	0.016449306	0.0052508824	0.03337239
0.0010113344	0.048601698	-0.013743769	-0.003031563	-0.047377255	-0.04607259	0.025044192	0.002904296	-0.02552998	0.016810331	0.038520027	0.029063713	0.00041252375	-0.016295016	0.030172098	0.043844488
0.018023241	0.03127673	-0.04413688	0.044594	0.0007434264	0.001141727	0.024292711	0.047302555	-0.047736645	0.027898144	-0.034690905	-0.040520333	0.021428179	-0.046211567	-0.020334614	-0.04761343
-0.02625208	0.0019308329	-0.014317296	-0.011963725	0.04219563	0.027240861	0.021338556	-0.0020978674	0.02960242	-0.03388516	0.0072692037	0.011764836	0.033894207	0.0018235557	-0.025743652	0.017342534
-0.0006904006	0.047722463	0.04744408	-0.009322297	-0.029519666	-0.0439973	0.016813327	0.002354253	-0.043041863	-0.027465511	-0.037784122	-0.022785604	-0.0021791346	-0.0025796518	-0.006890692	0.02144761
-0.0073315725	0.011228155	-0.014451396	-0.034508027	-0.03773271	0.04751314	0.018121425	0.041302357	-0.027510036	0.0024624467	0.0149558075	0.026461605	-0.047915675	0.0067334883	0.024808075	-0.011515688
0.022162225	0.012478627	-0.0374035	0.028660681	-0.04156369	-0.04246961	-0.030286718	0.029229749	0.009537078	0.011379935	-0.025722349	0.026108924	0.03225955	0.018263768	0.03891219	0.031320002
0.029426541	-0.013471283	0.043230783	0.0019339807	0.049196098	0.015183214	-0.0022555105	0.019237105	0.004427217	0.0084192045	0.03108995	-0.018025387	0.015729334	0.033360038	-0.02212261	0.019612525
-0.047156263	0.022727821	0.04531416	0.043103565	0.020723488	0.004472602	0.018559542	0.04010159	-0.01625985	-0.010817088	0.021395754	-0.024089789	-0.0048442483	0.004101217	-0.039902557	0.03243226
0.003057491	-0.0063314065	0.01999512	0.0075373054	0.03163148	0.0031659491	-0.042405214	0.040354695	-0.013738312	-0.039642416	-0.01955098	-0.047751427	0.003666032	0.049606655	-0.032547653	-0.032502234
-0.009825338	-0.03116802	0.028190318	0.0022906885	-0.010375787	0.006281756	-0.018101595	-0.0054297335	0.01229652	0.04852773	0.04282668	-0.021786822	0.031959716	-0.009285998	-0.015114926	-0.018314827
0.036280062	0.0077767	0.030280206	0.037342254	-0.028106844	0.013266493	0.041410152	0.035648715	0.042956803	-0.008820452	0.004556656	0.025393996	-0.01811514	-0.004318975	-0.011416804	-0.02462535
-0.012399089	0.0032400116	0.0011564977	0.029783893	0.04190633	-0.01566844	-0.033723652	0.01919875	0.0014189705	-0.019566072	-0.004216362	-0.039125882	0.023252282	0.038071122	-0.04069344	-0.016216122
0.005986333	0.028703284	0.02675308	0.028390978	0.0049900524	-0.0053143017	-0.025319338	-0.0058676973	0.03691337	-0.0045617335	0.016349923	-0.009660222	0.043745387	-0.015824795	-0.027878953	0.0011366494
-0.0006681904	-0.00015530735	0.03171226	0.017506395	-0.025901306	0.0378847	0.032627057	0.04887599	-0.024225676	-0.006649863	0.026450071	-0.037109625	0.010436356	-0.020706082	-0.020412458	-0.034759164
0.030667555	0.022154521	0.024634507	-0.024218513	0.033541802	0.025442217	-0.034258448	0.029385243	-0.042398512	0.044606987	0.040231947	0.01681849	0.04410622	-0.027488435	0.04107168	0.0021177158
-0.04487256	-0.027580023	0.0112788305	0.02955759	0.015353326	0.035885397	0.030126218	0.010040067	0.030294482	-0.03958992	0.01967365	0.020524275	0.016486976	-0.034374513	-0.02544688	-0.0043369904
-0.0003004186	-0.01557076	-0.007756125	0.030643295	-0.02984463	0.0045875683	-0.027408123	0.026866619	0.0060699955	0.031455103	-0.0006794706	-0.047339357	0.039210502	0.006156765	-0.003206648	0.029458966
0.018044796	-0.021653688	0.034643505	0.0008299127	0.0058312193	0.025544036	0.047734562	-0.0016719215	-0.0012512915	-0.025349116	0.00336672	-0.0036029592	-0.036650777	0.01689731	0.010266624	0.03515761
-0.037950348	0.029136214	0.008923758	-0.02846886	0.028993558	0.048128393	0.047711615	-0.035391558	-0.024707748	0.030151214	-0.032061376	0.015904073	-0.028501857	0.01995695	0.010983694	-0.013440419
-0.03880166	-0.0058678016	0.036149267	-0.02762264	-0.0039996505	-0.025826288	0.0334278	-0.049307253	-0.022298062	0.0154971	0.0024946555	-0.009178042	0.023759853	0.008635927	-0.013806295	-0.035577644
0.03817377	0.018368695	0.03941853	0.03355321	0.04686031	0.022438418	0.015675772	-0.031441547	-0.0332245	0.045555677	-0.049809705	0.013367776	-0.048363756	-0.032607637	-0.046955466	-0.021710098
0.017535973	-0.049412157	0.044385266	0.041445974	-0.03641943	-0.024102582	-0.012062203	-0.041547142	-0.023698723	0.049907316	-0.030432248	-0.019562328	-0.006119728	0.0023852214	0.016671363	-0.038965903
-0.014079094	-0.013775647	0.039738547	0.040413607	0.039797533	-0.016908515	-0.047163796	-0.00616939	0.005115997	0.018374894	0.014067661	0.007056594	0.029502895	0.030942585	-0.03604902	-0.02248503
-0.013782859	-0.02086035	-0.006567646	0.03611705	-0.010336019	-0.04816587	-0.028631186	-0.0095414035	-0.023812938	-0.0045738593	-0.005522024	3.6917627e-05	0.011807241	0.013402645	-0.04040178	0.045532394
-0.0021911748	0.048157822	-0.012988783	-0.009693265	0.037085	0.047015224	0.03863089	0.048874203	-0.008690059	0.044764046	-4.1473657e-05	-0.02899599	0.014049891	-0.013178777	-0.042683672	-0.012870707
0.043802474	-0.041450657	0.040114436	-0.011361383	-0.026327802	-0.01429715	-0.00807146	-0.019172812	-0.02226832	0.02947792	0.04274306	-0.008085884	0.0151829235	0.0048412792	-0.012385905	0.009715103
0.0019099116	-0.032252073	0.006925188	0.046776447	-0.030812968	-0.0044690967	-0.02315873	0.033381667	-0.005117595	-0.009098005	-0.017070342	0.016892266	0.027328935	-0.036946107	0.014750984	0.01850817
0.048784744	0.03238261	0.03443866	0.008589841	0.017601516	0.041692484	-0.0031805634	-0.036055803	-0.0036431178	-0.020764029	0.014130976	-0.03695321	0.023675766	0.020768825	-0.02391919	0.0416168
-0.03832519	0.004854072	-0.034425937	-0.028051281	-0.014493026	-0.041702878	-0.042271223	0.035371993	-0.011735726	-0.013434004	-0.025154471	0.038787987	-0.03814719	0.034106497	0.024885107	-0.0047560446
-0.0034984127	-0.009132337	0.048220906	-0.043535795	0.008040536	-0.013307132	0.024797823	-0.0169603	0.0009154193	0.015555177	-0.006011404	0.026818585	0.034148898	0.009821903	0.025977697	0.0025452748
0.027416382	-0.005882513	0.026820723	-0.048905935	-0.043618526	-0.019128239	-0.049638417	-0.03603561	-0.049682464	-0.0012289286	-0.01216023	-0.031676233	-0.0021341927	-0.04824567	0.04336704	0.018926192
0.031333413	0.01923782	-0.027778184	0.027729902	0.036413815	0.030454766	-0.039640248	0.049503516	-0.00617671	0.02776945	-0.024049653	-0.049050916	-0.048866738	-0.043422487	0.030050222	-0.049097896
0.03407668	0.0010292307	0.024977218	0.030912403	0.026180815	0.036555503	0.007947825	0.04384767	0.005349826	-0.034855556	-0.0029062144	0.0037121177	0.028696548	-0.017126728	0.00045547634	0.025188599
0.01543026	-0.0118980035	-0.04539279	0.005887173	0.045735803	0.016987372	-0.044575848	0.020411741	0.011030115	-0.002308797	0.042596053	0.0041340366	0.021483246	0.03156339	0.014181044	0.008999944
-0.00028325245	-0.049199652	-0.01955129	-0.014865361	-0.013081085	0.006204568	-0.03163518	0.032447565	0.046084214	-0.029817892	0.03902472	0.03224707	-0.01872928	0.04395001	-0.0030538924	0.010138571
-0.017347623	0.033349838	-0.012479007	-0.022578442	0.046505425	0.025703225	-0.04171567	0.04819684	0.024426784	0.01959968	0.033620093	-0.0005622022	-0.030741883	-0.004446842	-0.049330235	-0.0067569986
0.023421872	-0.019727672	0.0030021667	0.042854358	0.030603241	0.024497453	0.024527874	-0.027493024	0.027547944	-0.009173632	0.027751599	-0.01978314	0.04529928	0.031184446	0.023473177	0.029954467
-0.01511661	-0.024562253	0.037047338	-0.044679582	-0.028791893	-0.01741942	-0.0035913698	-0.021762514	-0.023877347	-0.042363953	0.006193243	0.04237101	-0.04279536	-0.043657806	0.037728917	-0.028848125
-0.029515207	-0.022476971	-0.03193556	0.00686574	-0.02526548	0.031826805	-0.030279566	0.046709966	0.04352467	0.03397907	-0.0309726	-0.04984144	-0.03742199	0.014546048	-0.012557246	-0.016915668
0.04212344	0.012846578	-0.011073805	0.028954636	-0.00965184	-0.0065682903	0.03944048	-0.019032931	-0.046100713	0.045017693	0.024596367	0.043008734	-0.012043428	0.04274508	-0.032044612	-0.017131723
-0.018709373	-0.018863035	-0.032096818	0.00729803	0.03033365	0.016435351	-0.005666673	-0.008152366	-0.046849966	-0.0032173283	-0.04407425	-0.0009984374	0.02152126	0.023277644	-0.043217625	0.032968726
-0.025410498	0.041034292	-0.030621398	0.035821464	0.019738141	0.005885683	0.012774218	-0.0038253441	-0.0047342405	-0.0043073893	-0.039273966	0.045149136	0.009401225	-0.0049201623	0.03537557	0.012079705
0.036976602	-0.03816571	-0.017677128	-0.0078099146	-0.037129987	0.025501814	-0.015843987	-0.010147534	0.016787875	-0.03224454	0.010366451	0.022741806	-0.049124755	-0.021425856	-0.011116467	-0.025680972
-0.01735457	0.038198385	-0.03275591	-0.030331492	-0.013861693	-0.023713375	0.024743486	-0.0374838	0.024144437	-0.009330511	0.0473524	-0.022115683	0.025820922	0.047171246	-0.047996547	0.017280113
0.022479836	0.012506161	0.01530261	0.0056858435	0.0236285	0.04226288	-0.0060664043	0.03423767	-0.00014023855	-0.0002454631	0.0362002	0.030105162	-0.02471112	0.01580033	-0.022347653	-0.02114023
-0.021329356	0.00010802597	-0.041662015	0.04007173	0.046798836	0.01634593	0.028359998	0.032427434	-0.045148015	0.028096687	-0.020860184	0.0010543093	-0.024461163	0.039988603	-0.01990652	0.042979065
0.007168554	-0.044545066	-0.029660499	-0.04690963	0.010241903	0.043782864	-0.027406454	0.020892594	0.03786203	-0.032485534	-0.013220824	-0.02253449	-0.034015596	-0.03628851	0.016783144	0.007000804
0.041708242	-0.030038381	0.04855478	0.024420168	-0.017838798	0.049794044	0.03663038	0.014119003	0.010227799	-0.011065662	-0.015570641	0.014694642	0.041883472	-0.031044532	-0.0033314712	-0.018404685
-0.0022222996	-0.03160409	-0.03827727	-0.002739597	-0.04232763	-0.035350513	0.0069481023	-0.022164106	0.040315304	0.048111532	-0.0032873265	-0.001530923	0.040720318	-0.0054219738	-0.022600472	-0.0051180236
-0.0051130652	0.025334943	0.04009438	-0.013355959	-0.010628797	-0.045601275	0.040781174	0.02697632	0.031400118	-0.026106609	0.0037366264	0.03545476	0.039215494	0.013585273	-0.020534122	-0.020952618
-0.0011324398	-0.02671088	0.028557602	-0.02353791	-0.040467393	0.028739069	-0.021324921	-0.022966957	-0.026174296	-0.00019923598	0.007777013	0.022270467	-0.014201246	-0.011208225	0.0075839274	0.010199048
-0.017552327	0.04539383	-0.0080524795	-0.04793134	-0.015108287	0.011546016	-0.024840176	0.01611587	0.020397853	0.047794197	-0.029788077	-0.016556252	-0.038015198	0.014971558	-0.018815422	0.0406507
-0.03899498	-0.027442945	0.04661793	0.022023488	0.021888245	0.039939467	-0.039962433	-0.001028169	-0.021206606	0.02414919	0.034383666	0.039530966	0.014926445	0.034922156	-0.033816148	0.00941781
0.040826093	0.03396218	0.0023511872	-0.003799308	-0.0382907	-0.03668196	-0.019176757	0.021520678	-0.0029750578	-0.023605168	0.0064809546	-0.032026067	0.034747075	0.01804341	0.0004016757	0.039271463
-0.00846808	0.00832795	-0.021733845	-0.041614197	-0.028721202	-0.0076636784	-0.03194777	0.04546434	0.021588814	-0.04358058	0.0019539595	0.029687252	0.01584873	0.002038084	0.023758199	0.01804528
-0.013072193	-0.0005946383	-0.005973708	0.037930857	0.001891505	0.0130246915	0.034746144	0.004465293	0.04199103	0.02193426	0.022465017	0.039811064	-0.0019048676	0.026850466	-0.039817322	0.02416357
-0.04147632	0.009915449	-0.011428513	-0.029642344	0.046660673	0.008091401	-0.035727777	0.026287112	-0.042034708	0.014092658	0.006745577	-0.027900446	0.024516832	-0.019999063	0.029258016	-0.036237717
-0.02442273	0.046247903	0.036383037	0.011946894	-0.01095245	0.033280816	-0.017107569	-0.049704995	0.0075468905	-0.03668028	-0.005063176	-0.006077148	0.011012889	-0.016160928	0.033286635	0.012751926
0.032193173	-0.022119224	-0.017269384	-0.0025793426	0.03175706	-0.0027768016	0.022439275	-0.047375154	-0.020371234	-0.004594587	3.9614737e-05	0.018183317	0.031010222	0.033707153	-0.009053182	-0.04927192
-0.019798482	0.037398312	0.019260656	0.025508095	0.026593033	0.032020558	0.008685242	-0.01915375	0.0029428825	-0.02228768	0.049512018	-0.013844799	-0.01827526	-0.02121296	-0.015848838	-0.027271438
0.045524348	0.01096002	-0.048692714	-0.029105103	0.02638166	-0.031092513	-0.048508346	-0.040265013	-0.00019345433	-0.014846373	0.00072717667	0.03768534	-0.023191929	0.0092172995	-0.025659358	0.04180869
0.04006323	0.0073468685	0.010731757	-0.045078184	0.0037354827	-0.009429894	-0.004299462	0.04620676	-0.03341367	0.029889707	0.049313787	-0.028988779	0.004555978	0.021060478	0.0017908216	-0.044481482
0.036956515	-0.03505845	-0.042435657	0.036379565	0.049568582	-0.032397784	-0.0029158816	0.012226988	-0.011133373	-0.04155953	0.01554266	0.03214747	0.035079826	-0.0010142326	0.013379108	0.03334247
0.025548879	0.009791445	0.02384099	0.030052748	0.03828566	-0.0046152696	0.007655263	0.006037928	0.023349512	-0.044440653	-0.023573661	-0.041836727	0.013963256	-0.032270767	-0.048725855	-0.020869149
-0.042543173	-0.048781525	-0.023855448	0.035639886	-0.026271427	0.018819738	-0.030472135	0.0033092014	0.04812992	0.03984784	-0.009848297	0.0018132925	0.022241522	-0.036723875	-0.029230857	-0.017458953
-0.024847878	0.0009802096	0.020981345	-0.0065333024	-0.044813897	-0.041847788	-0.040287577	-0.014494695	-0.044691384	0.028149392	0.03974619	-0.008888103	0.0030052178	-0.03551216	-0.0016740076	0.0071909055
0.032036852	-0.04282261	-0.005788099	0.02315316	0.04448173	0.043958116	-0.023075808	0.024645474	-0.014755558	-0.04241128	0.042992327	-0.021915866	0.046265904	-0.022246301	0.018116068	0.038540516
-0.018244348	-0.021266056	0.0451998	0.026179697	-0.01538372	0.009630512	-0.027254654	0.025806058	-0.0011538751	-0.031384803	-0.046072353	-0.04473604	0.006704293	0.03807472	0.0012323968	-0.019806791
0.03517933	-0.013583589	0.041136395	0.014836062	0.0057681687	0.046589207	-0.023740936	-0.01002606	0.038293008	-0.039085627	0.0039483085	0.034679104	0.017827038	-0.027288903	-0.04712529	-0.040282287
-0.02422675	0.027549509	0.021364119	-0.008099891	0.03469875	-0.022856832	0.045424584	0.03695363	-0.027876783	0.004993461	0.021992717	0.024398718	0.04378761	-0.00520109	0.04920763	-0.032270573
0.037708852	0.029727612	-0.034117594	-0.015211225	0.02480236	0.003658019	0.03617836	-0.0317348	0.04130887	-0.048557438	0.03266119	0.012153912	0.028087545	0.04476699	-0.027362514	0.04250324
-0.015939973	0.019064035	-0.03495101	-0.041847	0.018904302	-0.0005947724	-0.049052287	-0.034991957	0.018315565	0.008451007	-0.0358513	-0.038119353	-0.00085977465	0.010092448	-0.04114697	-0.023286998
0.0280439	-0.039776362	-0.03899356	0.047490787	-0.034279753	0.04679742	-0.046611693	-0.018790914	0.00313567	0.04526112	-0.045584418	-0.016093384	-0.03518331	-0.029798115	-0.007878542	-0.029055417
-0.024624383	0.039594937	-0.037800513	-0.02540046	-0.014531065	-0.007243596	0.0033410415	0.046250913	-0.038485896	0.016491782	-0.039245915	-0.049362432	0.023362089	0.037654195	0.033139054	0.029214952
0.035242464	0.037736487	0.008660089	0.023612384	-0.02163632	0.027851488	-0.008950748	0.029510807	0.024280336	0.0063296184	0.024614241	0.043328416	0.0017996207	-0.0059449673	0.008721542	-0.03481438
-0.01574869	0.03137693	-0.00352142	-0.0024578944	0.041861366	0.04427663	0.030004475	-0.02460674	0.016795564	0.0179278	-0.04233644	0.013198923	0.0053944364	-0.025534285	0.0018349998	-0.009930026
0.037170064	0.033150766	-0.021590246	0.024117459	-0.027633298	0.030407991	0.029767442	0.049560476	0.0072389953	-0.00975883	8.711964e-05	-0.013296474	-0.042557657	0.008063603	-0.012399875	-0.049780358
-0.04507455	0.038134348	-0.013467513	0.028946687	0.037137996	-0.032125317	0.032184985	0.012836959	-0.047119617	-0.030580569	-0.039773833	0.048469234	0.0071248636	0.003856264	-0.04608667	-0.0398041
-0.018121421	-0.0044848546	-0.025693977	0.027049314	-0.012966357	0.037593316	0.0140574835	0.016849663	-0.00076370314	0.009693574	-0.008994829	0.046960387	0.03551669	-0.043079924	-0.0004976019	-0.030984832
-0.018841041	0.008532129	-0.025976395	0.02146976	-0.026826143	-0.042250942	-0.048233915	0.047987726	-0.033980444	-0.009747721	0.007899307	-0.03395833	-0.0021102428	-0.015912674	0.029256228	0.0018728599
0.044195008	0.009333145	0.031839993	0.0067168586	0.013308	-0.0110653415	0.02635217	-0.046434093	0.023961615	0.022604395	-0.023915624	-0.015598796	-0.0065048225	0.017014567	-0.017592333	0.02908161
0.010876201	0.047829334	-0.0154676065	-0.049965657	0.029873554	-0.039644264	-0.03834059	-0.049277928	0.031169128	0.0074772127	-0.01111082	-0.0051071867	0.0345773	0.049944293	0.00930699	-0.041140713
-0.005148519	0.025961366	0.019629087	0.048031215	0.017570686	-0.021345222	0.02356888	-0.03805413	-0.029630696	0.009630442	0.021019105	0.045716826	-0.0019167662	-0.0024118423	0.01806489	-0.0077141747
0.00086369365	-0.03270133	-0.021474516	0.047502566	-0.0054370053	0.047045294	-0.0052008517	0.025964428	-0.049329627	0.02375139	-0.047386087	-0.037270546	-0.02929814	-0.016315438	-0.02280643	-0.023807084
0.010784935	0.019747604	-0.041598715	-0.038078118	-0.0019248836	-0.018383443	-0.035220075	-0.013039313	0.01789279	-0.037399303	-0.0026920438	0.02963828	-0.025389755	0.018481825	0.04199754	0.016541626
-0.0384204	-0.04037385	-0.023690319	0.041357663	-0.020844353	0.025795344	-0.0019994155	0.035431672	-0.004083276	0.0014526136	-0.011512507	-0.007959973	0.011517037	-0.024372447	-0.020684863	0.041487385
0.020056013	0.008695494	0.041060697	0.027388219	-0.033938408	-0.032025695	0.004720889	0.0002872832	0.019351829	0.0027255416	-0.015053175	0.049983848	0.0032053106	-0.019403195	-0.028660882	0.032222714
-0.033513904	-0.0018695369	-0.027902102	-0.045008253	-0.03282875	-0.022197306	-0.011518694	-0.021648372	0.042467963	0.044131886	0.028344084	-0.018705249	-0.014314294	0.030109692	0.006638646	-0.0221568
0.013902012	-0.04007387	-0.04120145	-0.030612815	-0.036209	0.034816373	-0.031169737	-0.047504973	0.030286502	-0.025267912	-0.026267886	0.02628192	0.0077341422	0.037400212	0.003336478	-0.02277329
0.021409992	-0.02329768	-0.003545154	-0.011894263	-0.045316853	-0.047348715	-0.00082218647	0.011726759	-0.010008097	-0.0017615072	0.021686863	0.0048665404	-0.049745787	-0.038175724	0.045404125	-0.025730932
0.015114341	-0.011395	0.027062919	0.006190777	-0.0041904226	-0.0049683675	-0.008192848	-0.018708788	-0.0040433183	0.00096394867	-0.039159298	-0.02551124	0.007896878	-0.02815119	-0.020184303	-0.025628353
0.03100339	0.030552838	0.04197419	-0.013197493	0.0062216036	-0.046657898	-0.025934983	-0.038842894	-0.0092538	-0.04850589	0.0011785254	0.020710375	-0.009642899	0.036353614	-0.030532181	0.02726655
0.021358859	0.049273852	0.045907978	-0.02312621	0.0011921749	-0.01452788	-0.004055012	-0.019433558	-0.009724297	0.030869018	-0.037229203	-0.043099225	-0.008118868	0.024649572	-0.004895054	-0.03588984
0.048636843	-0.044277813	-0.04734396	0.016643193	0.007128548	0.007724248	-0.04206686	0.0052861087	0.013222683	-0.031250976	0.04884403	0.001672782	-0.006770514	-0.047097553	-0.034260474	-0.014069676
-0.048754144	0.02666844	0.046395008	-0.037163306	0.03429539	-0.002267979	-0.03172492	-0.02393173	0.031011332	-0.005082868	0.037891474	0.010499407	0.0122765675	-0.0073016174	0.026754502	0.030802224
0.026038837	-0.028489007	0.0047529936	0.03572211	0.01816113	0.0002682209	0.029862229	0.026112583	0.032215152	-0.011270117	0.036563564	0.03598621	0.03628638	-0.027244164	-0.019371187	-0.043361094
-0.040098716	-0.04391518	0.017758239	0.008406483	-0.013297178	0.019006465	-0.020234263	0.015831325	0.023870196	0.017096568	-0.017553687	-0.024726784	-0.039657332	0.036085773	-0.007616449	-0.041313685
-0.0047426447	0.038103666	-0.014583994	-0.04320283	0.0040269606	0.027386036	-0.025162732	0.047791664	0.030471686	-0.023374176	-0.003650032	-0.03212013	0.01419628	0.012814645	0.015975323	0.0016987808
-0.040520955	0.026672985	0.01693647	0.044928897	-0.014093794	-0.0266572	-0.03854104	-0.018437289	-0.0054291114	0.00012496859	-0.029336428	0.031746317	-0.01655047	-0.0042824633	-0.049291432	-0.043349396
0.044895362	0.018689718	-0.0019610412	-0.016724218	0.015643332	-0.017871298	0.049605284	-0.0021149293	0.023984615	0.029692773	-0.035358846	-0.014452219	0.0016632676	-0.025739765	0.009198118	0.045318488
0.005895436	-0.0060482845	0.020357277	0.03685068	-0.010882758	0.019391071	0.018999431	0.024025265	-0.007524155	-0.031006098	0.0260298	0.035290573	-0.009605229	0.015441608	-0.0031518936	-0.039024927
0.03333671	-0.04731841	0.006666731	0.046174433	-0.039706994	-0.031185854	0.029729519	-0.030826235	0.026597526	0.03426436	-0.024238825	0.013152193	0.043541502	0.005197786	0.037867103	-0.028830899
-0.0106429085	0.0058931485	0.025902893	-0.012877535	-0.011844266	0.005677391	-0.044978846	0.048681464	-0.026084794	-0.047889948	-0.023405218	0.009556256	-0.027052462	-0.031457737	-0.044998255	-0.0150658265
0.0015497096	0.022562396	-0.015688695	0.00071017817	-0.02973838	0.0151262395	0.011146616	-0.046307445	-0.022945095	-0.002426602	-0.036612917	0.038252022	0.027959976	-0.021282041	-0.0028835423	0.021045458
-0.04041934	-0.0208197	0.008127332	0.0006779209	0.025459375	0.036639187	0.036689017	0.009565782	-0.013140418	0.017070595	0.030895326	-0.006248176	-0.005022537	0.036164846	-0.025933111	0.0023092404
0.01639146	0.020635579	0.020621505	-0.019388616	0.036684062	0.026930083	-0.019170666	-0.042344715	0.019087885	0.026987854	-0.0034614205	-0.023693789	-0.021778477	0.008364905	-0.040770926	0.045258116
-0.016567707	0.033741448	-0.033973575	0.00970421	-0.049296	-0.007584654	-0.017296374	-0.04589777	0.0033592582	0.043169703	0.048655044	-0.039139472	-0.018799676	-0.018830633	-0.043420505	-0.0019015297
0.009637952	-0.0246547	0.025149453	0.02591652	-0.029874956	0.024252582	-0.040831387	0.032899033	-0.0045403615	0.0489381	0.020409834	-0.005210936	0.02234156	0.037781645	-0.027604211	-0.015057765
-0.04427824	0.027342591	-0.029287184	0.046613183	-0.0054877885	0.012193881	-0.010994922	0.02464882	-0.049484205	0.042801443	0.043635238	-0.022163082	-0.03503398	0.026827905	-0.04797983	-0.025196029
0.021394636	0.04288963	0.041701827	0.027299296	0.03171016	0.026209343	0.020631436	-0.010830522	0.03874177	-0.028220057	0.008667685	-0.002159644	-0.003847517	0.027107026	0.021189678	-0.039630283
-0.018106438	0.04272404	-0.000808429	0.016399112	-0.043443885	-0.01412157	0.020290185	-0.018435933	-0.0244792	-0.038219582	-0.00827422	-0.0408538	-0.040082015	0.036406968	-0.042351365	-0.03930193
-0.02193643	-0.0036952011	-0.008265484	0.007967055	0.009667575	0.027160455	0.008179009	0.0366461	-0.047619283	0.032157253	0.017076436	-0.031712092	0.007066883	-0.048203852	0.0026760474	0.023406435
-0.042559173	-0.0031459816	0.04416653	-0.024904108	-0.044854153	0.04509325	-0.01629256	0.022566307	-0.032381058	-0.025539756	0.009577632	0.0233179	-0.024076475	-0.04920534	-0.03181844	-0.029000247
-0.041874647	0.019021045	0.0029473193	0.026253413	0.020038676	-0.03310715	-0.0388708	0.047832433	0.039964702	0.0012731776	0.046599183	-0.033190444	0.001124084	-0.024630714	0.03509647	-0.03598968
0.012370158	0.043672133	0.042789187	-0.0421878	0.038516607	-0.009730101	0.034981873	0.041590083	0.046099547	-0.02445494	0.01011356	0.0017534867	0.010009706	0.042742375	-0.030105436	0.0015038364
-0.005825855	-0.012893677	-0.026322758	-0.033518158	-0.047209024	0.02123909	-0.008136272	-0.03340696	-0.044584632	-0.04328953	-0.02272346	0.01605722	-0.038243055	-0.01077348	0.047543038	-0.02769643
-0.018818712	-0.008896969	-0.043730106	-0.011329841	-0.015311994	-0.008156478	-0.024290277	-0.004497338	0.029084895	-0.016822398	0.027192462	-0.040504646	0.012231767	-0.017679084	0.046855498	-0.0138674155
0.005800236	0.035292838	-0.026159978	-0.02815932	0.018437985	0.029396128	0.0017213002	0.016344931	-0.012229301	0.03252982	0.034388665	0.040499095	-0.03206419	-0.045082595	0.028748665	0.017596964
-0.04508369	-0.0072496533	0.04721446	0.013516571	-0.04790858	0.026493978	0.0394344	-0.029297162	0.036331322	-0.026934791	-0.049105156	0.037155103	-0.026961828	0.027397204	0.0344831	0.022558872
0.012829449	-0.046730913	-0.03292437	-0.04432988	-0.012155782	-0.022330953	-0.029669607	-0.042317238	-0.033474743	0.0011643283	0.011191845	0.0489992	-0.044346858	-0.004226435	0.014426995	0.002313327
-0.01857271	-0.045152213	-0.040172003	0.0021386743	0.024395231	0.017632518	-0.04866407	-0.03509271	-0.006845616	-0.010276914	-0.048226	0.025628913	0.015874673	0.023749206	0.022557508	-0.032562338
0.040247966	0.014027823	-0.0494694	0.02594589	0.003769625	0.022189144	-0.023035575	-0.028422201	0.047481153	-0.033209123	-0.025297452	-0.030942751	-0.035890795	0.025169853	0.047573987	-0.028301228
-0.042570937	0.031352196	-0.035891794	-0.016802229	-0.012906611	0.03419682	0.029588107	0.010344673	0.028245125	-0.029728437	0.02202424	-0.019977009	-0.01613772	0.008170284	-0.015148114	0.04933888
0.0004131198	-0.040380407	-0.047520757	0.023569774	0.026945833	-0.018415343	0.04087415	-0.043330003	0.036073353	-0.040317796	-0.04986043	0.03967375	0.045957092	-0.004156243	0.0007964149	-0.030654991
-0.04455644	0.03505185	0.042931426	-0.023204757	0.016626243	-0.037628602	-0.010742653	0.029879633	0.013560895	0.0022402778	0.02787688	0.017247293	0.029600117	-0.017629586	-0.020345783	0.018782068
0.033311736	-0.042818893	-0.026084948	0.02796999	0.04261354	-0.04274067	0.04563831	-0.03481077	-0.017845891	-0.00881033	-0.015937008	0.019955266	-0.021413362	0.023612808	0.039473306	-0.011996031
-0.03407799	-0.043716144	0.018477488	-0.0013537295	-0.015244663	0.004306875	-0.045241762	0.028693106	-0.017199814	-0.029151488	-0.04104034	0.026066694	0.04512317	-0.0138839595	0.041029844	-0.03720802
0.00762688	0.013464656	0.014579665	-0.029743005	-0.032634936	-0.0006321557	-0.040236045	0.04110005	0.039181318	-0.011592377	-0.016167901	-0.017624952	0.038531248	0.047578085	-0.03922843	0.0063248985
-0.009177219	-0.03502067	0.013290059	0.021478299	-0.02474767	-0.026455915	0.03805468	0.027657006	0.022264335	0.03179567	9.883195e-06	-0.007616304	0.033083286	-0.004879296	0.0029470436	-0.0060792677
-0.042176545	-0.02376616	0.0027490146	0.013183381	0.030756678	-0.03995937	-0.037189282	0.029527549	-0.02240771	0.013307098	0.03112587	-0.022087181	0.04821838	-0.001198817	0.04042318	-0.019391477
-0.005084742	-0.04182296	-0.008579612	-0.040346064	0.04118197	-0.014091838	-0.03359075	0.049315188	-0.01563847	0.03222171	0.009519599	-0.020595122	0.04104418	-0.012909532	0.00022355467	0.04893284
-0.0022064224	0.048427466	0.0045056343	0.014483962	0.008806765	0.017054442	-0.016313732	0.021533404	0.025417183	-0.047608078	-0.03666245	-0.0069980137	0.009762704	0.042470183	-0.023806607	0.03682505
-0.019564295	-0.034896266	0.040190343	0.0274187	-0.009102453	0.03444623	-0.013886847	0.0050731413	0.017906535	-0.013702523	0.0077719577	0.003048908	0.044714008	-0.022241378	0.0036539212	0.030141901
-0.039493572	-0.028086746	-0.03531152	0.0042567737	-0.007968761	0.046189677	0.028099861	0.006072782	0.041624155	-0.038161755	0.03192984	0.024048392	-0.0095125325	0.006327439	-0.0041697137	-0.0026408546
0.0032152757	0.014658418	-0.020314515	0.017815176	-0.024904525	-0.029348766	0.022350933	0.045542825	-0.032429744	-0.010924865	0.04162022	0.010602593	0.015668418	0.048819784	-0.022834301	0.02277023
-0.014035869	-0.03902676	0.0432829	-0.010868885	-0.016799819	-0.027685642	-0.01520171	-0.0035328753	0.0147472955	-0.044620108	-0.009484481	-0.03535527	-0.03844986	0.038039174	-0.021163046	0.046205435
-0.0061797984	-0.02731116	-0.0314695	0.012551639	0.0236261	0.03530324	-0.0020347722	0.012904014	-0.022167265	0.012947474	-0.02635485	-0.04194505	0.040017728	0.03079528	-0.038235545	0.021755066
0.016752157	-0.037685335	-0.00830083	0.04689088	0.028971028	-0.041597307	0.008079208	0.04583243	0.0007549152	-0.008660793	-0.04291574	0.008153282	-0.03451557	0.030964922	-0.023019899	0.024754789
0.028060999	-0.03454702	0.024229769	-0.015582681	0.04222549	-0.012127053	0.035945784	-0.046980727	-0.029965485	0.048433054	0.0056194067	0.043093864	0.04807714	-0.0117909685	0.01885498	0.02954087
-0.047314264	-0.0055764094	0.045045186	-0.017195892	-0.022567844	0.04550678	0.03408316	0.031012226	-0.047216047	-0.01157267	0.036169816	-0.0004444234	-0.01722318	-0.035676885	-0.008114111	0.049797427
0.01811928	-0.0120565295	0.032391954	-0.044109475	-0.048669804	0.017387357	-0.007266082	-0.028500605	0.019230668	0.022995818	0.023863796	0.028452467	-0.04482163	-0.0019005425	-0.04780358	0.005658578
0.039500657	0.03820486	0.0037671328	-0.001982499	-0.015887547	-0.037035406	0.020184841	0.0035356656	0.016060267	-0.047784317	0.017368745	-0.041724455	-0.017642807	0.049627926	0.0066285953	-0.016411342
-0.019081414	0.0013195649	0.020394158	-0.025293339	0.0071053505	0.043246996	0.005603362	0.036955032	0.02833778	0.035696838	-0.0152311325	0.030529585	-0.049697936	0.022911016	0.012694728	0.02832086
0.0020875111	-0.0116394535	0.026329879	-0.042269528	-0.012045622	-0.03373623	0.039255094	-0.005599629	0.016937066	-0.008368827	-0.024986971	-0.032455467	0.011515986	-0.024105048	0.022068892	-0.02404182
-0.014913954	-0.031386185	0.029340316	0.044102345	-0.031798325	-0.01734035	0.02839357	0.04689202	0.042116832	0.020413373	-0.028444087	0.043349955	0.010828532	0.03414874	0.03263774	0.014084805
-0.03482902	0.019399036	-9.031221e-05	-0.022427356	-0.004556693	-0.04255805	0.0059818625	0.0037843585	-0.028246308	0.019347642	-0.026292408	0.017019045	0.04144193	0.015380476	-0.030084575	0.03105836
-0.030959701	-0.002165176	0.027289178	0.008696377	-0.038861036	0.0052767172	0.019111637	0.021290455	-0.0129291415	-0.00600376	0.005000375	-0.021914888	0.037032727	0.002738487	0.041078832	0.032907415
0.049479593	-0.01998651	0.024267796	-0.0062811263	0.0036039725	-0.03312727	-0.040987514	0.012356114	-0.04920415	0.02361456	0.0396331	0.049870323	-0.040853262	0.007740546	-0.041089773	-0.04783478
0.043914165	0.011804439	-0.045203473	-0.023638641	-0.0055434816	0.02339537	0.017736603	0.0070036873	0.020943131	-0.017195594	0.0032476299	0.048151825	-0.03013209	-0.028802335	-0.034917902	0.024023179
-0.04079344	-0.035644412	0.010699283	0.009026326	-0.01566384	-0.047837734	0.04445008	-0.033149555	0.022790346	0.023608115	-0.029631902	-0.0033174753	0.013233338	0.022152353	0.028025318	0.0028367862
-0.014361262	-0.03331908	-0.02530296	-0.019006182	-0.039477874	-0.009597372	-0.0167194	0.041808557	0.0026622787	0.016283873	-0.010183178	-0.018045045	-0.033308387	-0.0374087	0.011205364	0.007195879
0.04127306	-0.0020382404	0.047126424	0.02327982	0.033906687	-0.045856286	-0.040181637	-0.018561639	0.027151715	0.040977392	0.008456718	0.014497351	-0.015686214	0.009805061	-0.016075946	0.017016139
0.027607787	0.028342474	0.02567986	-0.02879386	-0.048003983	-0.039576925	-0.02867793	0.014612231	0.041717578	0.040867973	0.01626983	-0.028176917	-0.04023422	-0.031233383	0.019358266	0.00088064745
-0.015525423	0.037176874	-0.036655307	-0.003930293	-0.031140363	-0.03700024	-0.02586869	0.016602982	-0.029509176	0.021740902	-0.013874866	-0.045020293	0.017309513	-0.019133044	0.035265837	0.0126503445
-0.014214646	0.0086820945	-0.024664272	-0.0052319653	-0.01822082	0.029518817	0.027310695	-0.0326491	0.006173026	-0.012695957	0.008469593	0.03555646	-0.009564232	0.02174804	-0.036121167	0.005205512
-0.048942793	-0.014175285	0.0063941255	-0.027737355	-0.018785108	-0.00058178976	0.031184684	-0.04132427	0.034170415	-0.046907045	0.00858723	-0.035841383	0.019572664	0.012738671	-0.03220924	-0.045009255
0.00861188	-0.025605882	0.02132273	0.022182893	-0.018535018	-0.025545347	0.015413497	-0.028703654	0.031241242	0.017928604	-0.0040416345	-0.03955678	-0.009693813	-0.040970206	0.0080863945	0.00460013
0.0141795315	0.020524349	0.015182648	0.043114986	-0.007762134	0.044266712	-0.023653973	-0.027033364	-0.04823072	-0.04062735	-0.022447515	0.037484314	-0.0095929615	-0.011713244	0.023930658	0.008210778
-0.009009313	0.035732593	-0.023158384	-0.004297208	-0.048196483	0.041624498	0.02152374	-0.016018879	-0.035628952	-0.021244943	-0.00082570314	0.005986415	-0.014110457	0.04525515	0.03706992	-0.04390725
-0.013892211	-0.010429788	0.013278078	0.044524696	-0.036675274	0.020975325	-0.017643463	0.028422985	0.0450668	0.032181334	0.036018167	-0.012471389	-0.021433223	0.009776842	0.037775088	-0.00017633289
-0.037072502	-0.021077096	-0.0028762221	-0.0027292967	0.013406802	0.049275246	0.041219737	0.020404164	0.00073374435	0.04197221	-0.044958293	0.040941123	-0.03989172	0.0060979836	0.014573488	-0.007268071
-0.04474088	0.0316172	0.012876224	-0.020009339	0.021718327	-0.009137284	0.033286143	0.029319476	-0.01753255	0.024796676	0.04983968	-0.04884038	-0.027129615	-0.03310819	-0.034746576	0.039224897
-0.026479805	0.003575407	-0.00022864342	-0.03889818	-0.03602122	-0.045442678	0.021357227	-0.004040014	0.04242709	0.030542705	0.017300252	-0.006241452	-0.0018010736	0.042164	0.006000139	-0.020022094
-0.04396069	-0.036639847	0.026213516	-0.015107583	-0.038811434	-0.030871475	0.021764863	-0.019754006	-0.049523927	0.014176916	-0.0438097	-0.04882834	-0.042050302	0.019940462	-0.044548154	0.016223375
-0.041606963	-0.041041445	-0.007777501	-0.04331703	-0.004259456	-0.012125075	-0.04467192	-0.001458656	-0.047048654	-0.023882603	0.045152333	-0.02712971	0.024136271	-0.01939441	0.044314776	-0.038009822
-0.013914131	-0.03511404	0.0070347674	-0.02999047	-0.022871315	0.012954954	-0.014423393	0.00311172	-0.02424978	-0.023012018	0.012342978	-0.003636025	0.044481408	-0.015474953	-0.004211355	-0.011703752
0.040209126	-0.01178626	0.04121018	0.00011769682	-0.018254232	-0.004741896	-0.03843832	-0.046194863	0.042551745	-0.022861302	0.027843606	-0.049514353	0.00688269	-0.03277918	-0.0035061017	-0.013152767
0.015242528	-0.02722838	-0.016769849	0.014653329	0.026711572	-0.022098804	0.006414354	-0.011491574	0.028358664	-0.014770377	0.017559532	0.0010003932	-0.03320136	0.023720887	0.0018841513	-0.0073769316
0.04569122	-0.025914086	-0.04981327	-0.02055564	-0.046188604	0.022480343	-0.023433937	0.021065142	0.02736647	0.035149347	-0.025856769	-0.021130575	0.030788574	0.019026134	-0.027299106	-0.037257385
-0.045514263	-0.02920419	-0.021040464	0.02172694	0.042821195	0.009974085	-0.021274865	0.00434345	-0.032779325	0.04616897	-0.035987783	0.046934616	0.028374616	-0.0045208447	0.0009072311	-0.012780976
-0.0071974173	0.042386983	0.0067973956	0.029880669	0.019228365	0.010407567	0.010708284	-0.015931655	0.031827126	-0.04276482	0.026608791	-0.029657543	-0.026724054	0.04827783	-0.0013283119	-0.025965845
-0.021589352	-0.015149724	0.0077952147	-9.236485e-05	0.0074994937	0.04109807	0.002075456	-0.009460844	0.012244105	-0.039634846	-0.045129348	-0.012672912	-0.011933912	-0.0054164305	-0.016326737	0.04450934
-0.026006414	-0.030064905	0.008132804	0.03164209	0.03733692	-0.002508305	-0.026599182	0.025050987	-0.04955188	0.019415084	-0.028407121	0.013839055	0.040330637	-0.047383334	0.02015778	-0.045167636
0.023928795	0.045496356	0.025803912	0.03367268	-0.005266227	0.036343727	0.014614906	-0.029219413	-0.004953254	-0.01750343	0.028723028	-0.038488388	-0.042721834	-0.02889967	-0.019695366	-0.008688889
0.022084799	-0.024895525	0.016364109	-0.0054530725	0.036502372	-0.013787173	0.032893624	0.008417189	0.012161218	0.04349525	-0.04067856	0.024582628	-0.0051821843	0.019402597	-0.030377721	0.012344442
-0.0075907707	-0.009780742	0.02865306	0.009379901	0.014654789	0.025280084	-0.009945594	-0.02470615	0.02912898	0.01649804	0.0042118914	0.049543466	-0.0069231763	0.03573798	-0.010337006	-0.03611518
-0.03571645	0.023297954	0.025103454	0.005735971	-0.02138027	0.0009864941	-0.035348643	0.024324644	0.048043992	0.017452013	-9.734556e-05	-0.026043344	0.00039950758	0.04920652	0.03975835	-0.014248788
-0.0037490614	-0.020621682	-0.0017947927	0.014007796	0.04652861	-0.035237502	0.003290724	-0.0062498227	0.04117788	0.03806651	0.037749242	-0.030886685	0.011038743	-0.030978084	0.005280018	0.026484761
0.013508979	-0.028309619	0.037365485	-0.008062445	-0.013058651	0.028386246	0.047678772	0.014118839	-0.0016336069	0.0037812218	0.043634903	-0.0073743463	0.03094102	0.034544144	-0.0025518537	-0.022794843
0.030582432	0.044306505	0.023719404	-0.041406117	-0.029697955	0.010600079	0.03622887	-0.02386619	0.013765048	-0.0225636	-0.034358047	-0.016836978	0.03207371	0.0020010471	0.019285489	0.01783352
0.04836482	0.00255258	-0.03436216	0.015683677	0.031313468	0.025568102	0.00023661926	0.007307064	0.017544333	-0.037218988	-0.03871125	0.037300352	-0.037874173	-0.028988374	-0.03492124	0.04171587
-0.0065839067	0.037934434	0.031088892	0.033371422	0.040525947	-0.038844217	0.03416199	0.048051428	0.043753255	0.028671052	0.0161811	-0.011356413	0.02201749	-0.018330086	-0.04917034	0.008011781
-0.020606602	-0.034690488	-0.04886682	-0.04824288	-0.04918152	-0.032103263	-0.031370245	0.014891747	-3.3535063e-05	0.042915154	0.049298953	-0.018403959	0.01890571	-0.007582199	-0.0018947348	0.024485637
0.04138348	0.033304896	-0.02961483	-0.048809994	-0.018196918	0.037042443	0.026990723	0.026302483	0.035765056	0.03593273	0.044002425	-0.016587697	-0.0007655397	0.02712189	0.04897744	0.049746383
-0.009530734	-0.033416905	-0.04182843	0.017733786	-0.011615299	-0.0138340965	0.017019201	-0.041480385	0.043894064	-0.016787063	0.044673253	-0.0162097	-0.015144456	-0.006945513	0.016802195	-0.048394945
-0.0153239	-0.007388413	0.04248244	0.013463642	0.017380167	0.039522123	-0.023476852	-0.040884603	-0.036589324	0.029513549	-0.0044546947	0.021504674	0.02155422	-0.021951437	-0.002918899	0.048682217
0.038056564	-0.022617389	0.022548083	0.01877803	-0.02058555	0.0017961375	-0.001139462	0.027086627	-0.0035493597	-0.0070451014	-0.013759755	-0.010211408	-0.02158692	0.045032714	-0.0039225593	-0.012455739
-0.008842777	-0.04471172	-0.03261918	0.026305024	0.029284868	0.03055029	-0.031564735	0.005742252	-0.04570812	-0.0010003224	-0.014115475	0.016826104	0.033862855	-0.008689441	-0.014631022	-0.04898181
0.014243308	0.033417773	0.046486843	-0.0015220158	0.04015291	-0.029509915	-0.043025948	-0.021403134	-0.03941139	-4.287809e-05	-0.011983883	-0.033400916	-0.035353325	0.030010927	-0.009317756	-0.015331734
-0.02417159	-0.034474134	-0.007872261	-0.0060300343	-0.018609963	0.048614886	-0.03677807	-0.034185506	0.04802129	0.033051584	0.00441996	-0.04676516	-0.014619112	0.028282989	0.016459953	-0.044087984
0.03272133	0.011999834	-0.0010250807	-0.035140287	-0.02562511	-0.007483531	0.043375876	0.032091502	-0.037171435	-0.022156728	0.029513802	-0.038383305	-0.007420577	0.01202159	0.008301713	0.01485404
-0.011255644	-0.0450385	-0.015406467	0.015889648	-0.023248637	-0.011636246	0.028434638	0.0014254563	0.010982465	0.046399247	-0.0018730164	-0.03536377	0.020734143	0.04962628	-0.022285355	0.045867328
-0.047046244	-0.034004737	-0.010500394	0.02095655	-0.013004519	0.03168351	0.035281803	0.010815479	0.0048306473	-0.025186514	0.021803651	-0.022013152	0.0019390956	0.034023132	0.02117261	0.041265283
-0.004328858	0.016646016	0.042987023	-0.023218488	0.035727207	-0.009579085	0.0238888	-0.003825117	-0.024473464	0.024191033	0.0068671815	-0.048294045	0.0022128932	-0.046402644	-0.018198766	-0.009415187
-0.042069316	-0.032881487	0.012483168	0.031980816	0.035330463	-0.00080126524	-0.0055653453	0.0023136958	0.008110393	-0.046098053	0.014572892	0.039969634	-0.02024795	-0.0026855245	-0.02639432	0.04248747
0.028540466	0.031220723	-0.015689801	-0.000944674	-0.03401579	-0.00060291216	-0.038869273	0.016888965	-0.0057244077	0.04122753	-0.011522293	-0.04494231	0.01188878	-0.0120276585	0.019742373	-0.0012408607
-0.0054541826	0.029962074	0.0413733	-0.008772265	0.00925348	0.023874585	0.0016737096	0.016713489	-0.045070626	0.045092095	0.0015552044	-0.0016389377	0.04936364	-0.0139013305	-0.044636916	-0.025450027
0.008513488	-0.011534236	-0.041745983	-0.042297807	-0.048267007	0.010367025	0.031463	0.048516084	-0.042915046	0.017253224	0.0031698942	-0.010215092	-0.03143283	0.028296355	0.0044593923	0.028915513
0.011833034	-0.01432661	0.029796693	0.009017587	-0.030229855	-0.016914628	0.021428857	-0.042141438	0.006257247	0.0462096	-0.027536465	0.048575554	-0.004337322	0.028649691	0.02938905	0.04346719
0.00780512	0.011159528	-0.020080997	-0.012643971	0.048394356	0.01964308	0.048312414	0.0155627765	-0.01902355	-0.0076084137	-0.040593434	0.026353095	-0.03843539	-0.04499017	0.036279287	-0.019168759
0.019493762	0.0343771	-0.0064667836	6.318092e-05	0.030354645	0.028931644	0.02275696	-0.046476554	-0.034511365	-0.047718525	-0.038085103	-0.029943705	-0.022690391	-0.0052135363	-0.03037802	0.033844795
0.031790648	0.020674754	0.0056920424	0.0240064	0.020640437	0.027123522	-0.023461247	-0.03506453	0.00939212	-0.03671379	-0.041301955	0.015733372	-0.021848334	-0.032547377	0.025237147	-0.04980985
0.044126894	-0.029295135	0.01716223	0.02304412	-0.047465563	-0.010266185	-0.01381886	-0.03769554	0.0029095188	-0.0017844811	0.043158982	0.0032755733	-0.015991677	-0.016402006	-0.04750309	-0.00027217716
-0.036366962	-0.030482829	-0.00395409	0.043087687	-0.008721661	-0.019205963	0.007299222	-0.03541894	0.0022635832	0.04402889	0.036210645	0.0015665181	0.039039943	-0.0018000714	-0.04909396	-0.030444968
-0.0333681	-0.0333179	-0.04151522	0.013278592	-0.016190149	0.0053694136	-0.023951268	0.024306621	0.00861441	-0.03330584	0.010259688	0.028757405	-0.01576785	-0.028599203	0.0015627854	-0.0030912273
-0.017361294	-0.028495466	0.005700767	0.037288103	0.03185438	-0.004225172	-0.019034803	0.048355903	0.009248532	0.029749643	-0.0011562109	0.03473905	0.022710111	-0.031467892	0.0302709	0.013347771
0.04254167	0.012354828	-0.034075297	-0.0312737	0.045332555	-0.044186223	0.007309951	-0.03900112	-0.026078893	-0.015940093	0.031042363	0.014323082	0.027764048	0.003027819	0.016073111	-0.007415451
0.021073747	-0.039242186	0.0401464	0.020963479	-0.026263833	-0.04374391	0.025308821	-0.03488771	-0.027364243	0.00018703938	0.0017399788	0.04383694	0.012862209	0.034497324	-0.028678013	0.025644217
0.03753973	-0.022796845	-0.0136714205	0.010568716	0.0052855127	0.02858032	-0.024176527	-0.02489506	-0.035710335	-0.016171765	0.002709221	0.042105068	0.036439065	0.022839379	-0.021818995	-0.039729677
0.01598959	0.03761543	-0.0009935126	0.021720137	-0.010124337	0.04550277	-0.01585535	-0.009881377	-0.0019330867	-0.043635514	0.0055293217	-0.008126188	-0.04587269	0.00091227144	-0.04277743	-0.006178938
0.0031301603	0.038902406	-0.034279585	-0.03916503	0.048302177	0.027389836	0.0037145838	0.029217754	0.015274752	0.025239471	0.02779558	-0.038837947	0.040248048	0.04903138	0.022068862	-0.048022557
0.010351621	-0.006199956	0.003228832	-0.034949888	0.014583062	-0.026456762	-0.019698536	0.04835869	0.042020354	0.046185974	-0.040118136	0.012496531	0.041784193	-0.040704645	0.00017433241	-0.044322457
-0.0037822612	-0.027885461	0.029395785	-0.034108877	0.02578533	-0.015874602	-0.024104917	-0.012256026	0.004007507	-0.04493488	-0.042014025	0.027561773	0.020393442	-0.0076547153	0.014558304	0.04556707
-0.043058585	0.016491916	-0.036845196	-0.039461315	0.011224829	-0.023343503	-0.02696209	-0.032593656	-0.024355961	0.013138298	-0.044712164	0.021075036	0.008225717	-0.0030553937	-0.022561742	0.03624438
0.043171573	-0.038499784	0.018723357	-0.017966758	0.011521719	0.049852584	0.026591051	-0.0055668727	-0.013538063	0.04073968	-0.022052158	-0.0336684	-0.021859312	0.048558746	0.040471498	0.04863247
-0.017075956	0.015273999	-0.0093874335	0.017449152	0.016975652	-0.03785944	0.04445969	0.039343584	0.0021374002	0.023252819	-0.012322176	-0.00019129366	0.011558831	-0.038551666	0.033635247	0.045440618
-0.0055980794	0.024093177	-0.025061239	0.026504073	0.011093367	-0.025469828	-0.008405127	-0.021904612	-0.012912273	0.01626395	-0.026170064	-0.01627884	-0.011679269	-0.046161976	-0.034572802	-0.008464146
0.029472593	0.008306205	0.03225172	0.043048088	-0.03889805	-0.01348431	-0.032230616	0.04031137	0.040205408	0.03749964	-0.007561825	0.03978933	-0.00767529	0.03396971	-0.011432935	0.028900709
-0.007840611	-0.017700147	0.018345747	0.032636117	-0.033709303	-0.04462868	0.0022597313	-0.010090519	0.00452175	-0.027294755	0.02524067	0.037540738	0.0013812408	0.033274	0.03234079	-0.04793494
0.016598675	-0.022683859	0.0029686578	0.017363157	-0.048384335	0.024212528	-0.0075545795	-0.041654073	0.04473946	-0.03715266	0.008990049	0.020225834	0.00043531507	-0.00907756	-0.022787143	-0.014421761
-0.041610382	-0.0046553724	0.021898035	0.018371474	-0.012795102	0.016985726	0.02790222	-0.01806141	-0.03199171	-0.038209964	-0.011944331	0.031369183	0.044009034	-0.040203106	0.024386112	0.02757505
0.047194753	-0.041451193	0.03452586	-0.031966053	0.03327291	-0.032689236	-0.023692477	0.0078090653	0.010498144	0.0110549815	-0.0016151778	-0.014063872	0.04874647	-0.02796222	0.019359242	0.04833648
0.036318388	-0.0032519698	0.0020292625	-0.048655927	-0.045640875	-0.0040626302	-0.03258877	0.028907124	-0.011263538	-0.038755916	-0.03776612	-0.03291737	0.0042769313	0.028167214	0.04253796	-0.038434137
-0.016833782	-0.03228854	-0.017529119	0.0036647096	-0.010004245	-0.03692162	0.007389974	0.029991519	0.02455907	-0.017417181	0.030524168	0.010589588	0.04701468	0.02141497	0.007838942	0.016729537
-0.0377913	0.005698882	0.030867074	-0.030078424	-0.031687714	-0.011180103	-0.012477517	-0.03172605	-0.03202059	-0.032657407	-0.015485108	0.02317376	-0.00031206757	-0.033881567	0.011785209	0.045104805
0.038034026	0.010462366	0.04828376	-0.026134837	-0.029565549	-0.00821482	-0.007388197	0.043785784	-0.04391669	0.0010391474	-0.039802276	0.045790758	0.037623275	0.042472865	0.03849541	0.030344572
0.010527123	0.041395817	-0.028193975	0.047277037	-0.021909297	0.020336475	-0.014283679	-0.030308926	-0.04856391	0.036210347	0.045384895	-0.02773931	-0.044425823	0.009475492	-0.036015414	-0.0039132126
0.012009263	-0.039281238	-0.021854222	0.044271696	-0.038075376	0.017477345	-0.014438737	-0.028553689	-0.042819727	-0.025978481	-0.0018064156	-0.048349548	0.0038097985	0.018174004	0.030646328	-0.049924564
-0.018906701	0.011408567	-0.041861035	-0.0393134	-0.03497509	0.0318025	-0.009024598	-0.009445965	-0.0024943575	0.016401362	-0.031819247	-0.02161243	-0.02770406	-0.038125824	0.044981945	-0.011320807
-0.036013175	0.047354165	-0.030516101	-0.028923452	0.019456092	-0.048914935	-0.045700815	-0.0024946108	-0.033744656	0.02190752	0.04758359	-0.04287225	-0.04748515	0.04526457	-0.0043799654	0.0030789599
-0.035866402	-0.038177334	-0.037476897	0.006212093	0.0075221285	-0.01729722	-0.012786686	0.037460115	0.03847802	0.000988163	0.028909575	-0.005773008	-0.03312327	0.031818736	0.016460393	0.0049470067
0.009012591	-0.0031982884	-0.040543593	0.015596617	0.0011233687	-0.024033023	0.0071241744	-0.004350733	0.047823597	-0.0029058345	0.044422593	0.0047241673	-0.030316878	-0.0071562044	-0.043807458	-0.03043592
0.026040081	-0.000936877	-0.036247443	0.022807945	-0.0021736138	-0.016417801	-0.04406625	0.0367296	0.044290546	0.012856629	0.01608311	-0.01569084	-0.014669597	-0.038329184	-0.007561505	-0.01593741
0.0032607317	0.0031467453	-0.0054810643	-0.037286974	0.040858496	-0.037752308	0.047669318	0.004453324	0.028454755	0.047338072	0.04866947	-0.036057137	0.002560366	0.031220678	0.019037273	0.034718666
-0.04228089	-0.025750672	0.013739873	-0.020250762	-0.03239751	0.025441196	-0.006154787	0.017242994	0.033739533	0.046614576	-0.023811484	-0.025576448	0.00783211	-0.04731108	0.020060908	0.021548953
0.042285804	0.00753795	-0.033835314	0.038520012	0.019883063	-0.016120028	0.013731983	-0.010151971	-0.045780003	0.019181121	0.043727007	0.012234937	-0.038923822	0.04859766	-0.040740788	-0.036830593
0.030623797	-0.019146085	-0.020172764	0.016020682	0.030047525	-0.010334957	0.027942386	-0.024191512	-0.035208404	0.034269903	-0.008909844	-0.036956884	0.03924073	0.037873242	0.04130313	-0.026626682
-0.016189586	0.04916567	0.041934956	0.018918518	-0.017474841	0.029505935	0.007942893	-0.01819235	-0.020079518	0.013029311	0.016678419	0.027446065	-0.030969203	-0.045354284	0.0204239	0.0038664937
0.005897008	-0.028211141	0.022470962	0.02038071	-0.02939055	-0.00039824098	0.019436482	-0.019348478	-0.018530272	0.00718534	0.042280603	0.03616557	0.008532502	-0.02259562	-0.038279463	0.04165301
-0.026830876	-0.002081491	0.00041759014	-0.022527134	0.008131813	0.024835471	0.01314095	-0.040416837	0.008934151	0.03846923	-0.039596736	0.034708273	-0.024683392	0.042191718	-0.012225915	-0.033941768
0.022728648	0.030405153	0.043394376	-0.02032274	0.023024503	-0.035953425	-0.018997086	-0.046993233	0.03875983	0.010739885	0.04023892	-0.01600504	0.033846762	-0.002985835	0.025386874	0.02229755
-0.048060443	-0.004804194	0.03551736	-0.035651743	0.035272423	0.033545624	-0.010459982	-0.019101335	-0.026955307	-0.046653498	-0.027425647	-0.04699513	-0.014974795	0.0375419	-0.013989486	0.049151134
-0.03270235	0.019061398	0.04601011	-0.035564195	0.03187335	0.035376552	-0.027281893	0.012387194	0.03235105	-0.031203378	0.017379675	-0.0476161	-0.012505125	-0.028862251	0.030387748	0.04009122
0.020187985	0.040173616	-0.012377512	-0.049859334	-0.0073338263	0.024665866	0.009856425	-0.010987949	0.04106715	-0.010192025	0.012786452	0.020396803	-0.009403922	0.014407996	-0.0071654096	-0.03893602
-0.009185672	0.026812542	0.04555234	0.009116519	-0.03085128	0.008256175	-0.009360682	0.03402059	-0.018639922	-0.04667156	0.0052566417	-0.034263574	-0.017979871	-0.03582368	0.016462948	-0.03173541
-0.025013912	0.04225466	-0.024313796	0.04886966	-0.012730181	0.011196863	-0.022413945	0.010522366	0.02881736	0.030690257	-0.03419546	0.018526781	-0.022061838	-0.012107573	-0.0007701032	0.04732999
0.02076367	-0.03235023	0.022009406	-0.03899602	0.005469609	0.00998231	0.0013734922	0.03198893	-0.03379891	0.03814448	0.004826378	-0.02105453	-0.0060092583	0.01748867	-0.035368286	-0.008335032
0.023557793	-0.025127506	-0.003989231	-0.018124342	0.024488915	-0.010411035	-0.0025072917	0.012731101	-0.03509444	-0.016497709	0.02335186	-0.032070063	0.014276002	0.03106619	-0.01592052	0.017128255
0.044249665	0.034319233	-0.010538377	-0.03745885	-0.045104075	0.033341352	-0.011819709	-0.0215747	-0.0022573844	0.0344782	0.014380548	-0.041826654	0.020668928	-0.048506763	-0.046765696	0.04737847
-0.033189572	-0.0035387874	0.00588014	0.04508995	-0.012081802	0.019746993	-0.011939764	-0.042746093	0.0413857	0.044273127	-0.011170197	-0.03702434	0.03261484	0.035156403	-0.02955767	-0.022507085
0.030185614	-0.049042143	-0.012532305	-0.00889907	-0.0056103244	0.031887863	0.028268877	-0.006430328	0.045381416	0.006701447	0.028576162	-0.014675606	0.03483546	0.035976563	-0.036588658	0.0020504594
0.0015869625	0.048951123	-0.038237035	0.047899675	-0.011373341	-0.038418688	0.039168525	0.015967023	-0.020780934	0.014176678	0.04596379	0.023740951	-0.0063672066	0.018828	-0.048285402	-0.013582028
-0.019194592	-0.0018987879	0.04838227	-0.0011127368	-0.04530195	0.037664425	0.03964093	0.0068661086	0.023042094	0.027861584	0.022913542	0.020436134	0.012808528	-0.028949762	0.002832342	0.021032576
0.011803307	0.017989252	0.02256019	-0.00860988	0.0262856	-0.009626351	0.037024762	0.0343025	-0.047084834	-0.028660297	0.035199944	0.006270837	0.03482112	-0.01510302	-0.007831693	0.007521797
-0.023476446	0.020703387	0.03725895	0.04414362	0.027073864	-0.036530185	-0.041783653	0.04650077	-0.030226363	-0.021794582	0.026655901	-0.03762616	-0.020122087	-0.024596406	-0.02683574	-0.009472121
-0.023473883	0.02992395	-0.009607624	0.001019787	0.032716345	0.018906478	-0.0005987063	-0.004396595	-0.03182261	-0.021860171	-0.042527497	-0.046550047	-0.004819058	-0.037190817	0.030647684	0.012914386
-0.03995607	0.02054106	0.016249392	0.0410426	-0.033728912	0.022392992	0.025442969	-0.0004146695	0.017555881	-0.03229226	-0.047430944	0.042902198	-0.032242157	0.013427917	0.032894168	0.016848315
-0.047656108	0.039589632	0.03918804	0.02078471	-0.041111838	-0.033538364	-0.049536694	-0.0004351139	0.010314237	-0.039701484	0.006850742	-0.018328596	-0.027013624	-0.035464633	-0.008216072	0.0033767223
0.029075291	0.018644538	0.03989834	0.03856996	-0.010143388	0.047538903	0.007771611	-0.03189387	0.028786134	-0.0042620897	-0.005164407	-0.010969259	-0.015089273	-0.041891076	0.014335934	0.03743085
-0.0064056516	-0.0051490664	-0.004795216	-0.022402156	0.011815261	0.008819293	0.01193998	-0.019852055	-0.00061529875	0.047535393	-0.039497912	-0.0057459697	0.009857226	0.04052509	0.011516821	-0.022164285
-0.04510815	0.037885856	0.014407169	-0.03639704	0.045281086	-0.018578827	0.037281405	-0.04569043	0.046202872	-0.008659136	-0.0061564334	0.02426273	-0.0027273186	-0.03536252	0.029887307	0.027062189
-0.042057883	-0.03516432	-0.037226856	0.046565298	0.004671227	0.04608835	0.031088654	0.045517195	-0.031911984	-0.047137488	0.015905265	-0.032106116	0.014177714	-0.0021640062	-0.00066707283	0.026216615
-0.018694926	0.02782936	-0.009721555	0.016967442	0.012658823	0.037821654	0.048102546	0.013059828	0.028911736	0.0015434623	-0.026265217	-0.014474452	0.0028154962	-0.00017073005	0.018564846	0.035477947
0.034716774	0.0285316	-0.04895879	0.024865534	-0.04955844	0.0043656603	0.013065826	-0.015228797	-0.0116074085	0.04406147	0.005302597	0.04190768	0.020386372	-0.037673187	0.01169876	-0.019678831
0.007905163	0.0020220056	0.045613598	-0.029632999	-0.01292143	-0.0076123103	0.0012546405	0.045011196	0.030079853	-0.018182565	0.019359078	-0.013829984	0.0051369295	0.03108057	0.00853882	0.014244687
0.008139599	0.01599412	-0.014285695	0.033377495	-0.011048388	0.028686296	0.016914379	0.0057450905	0.01673356	0.031029176	0.006585337	-0.017350983	-0.040198125	-0.023699868	0.017555919	-0.034107853
0.040810827	-0.014653813	-0.0324332	-0.017955698	0.027451564	-0.047994077	0.00027618557	-0.009192206	0.020310942	-0.00019216537	0.047693763	0.023835111	-0.020241011	-0.033684634	-0.031901885	0.0049076565
0.02648456	-0.023984326	-0.030106366	0.0085349195	-0.018190563	-0.033765987	0.0092562325	-0.03524543	-0.032823384	0.040165547	0.004264582	-0.016253006	-0.02091	-0.046433996	-0.008145712	-0.019182742
-0.00085438415	0.03170589	-0.044128656	-0.024894714	-0.011001933	0.042077746	0.014319945	0.0074369684	0.009178568	0.033655953	-0.025819613	-0.04027809	-0.008536208	0.044213142	0.0023509637	0.040755812
-0.021464443	-0.027324772	-0.021263469	-0.01634729	-0.0045482293	0.013992611	-0.024592925	-0.0073298924	0.042585496	-0.012737762	0.025720667	0.042717878	-0.029573191	-0.038132884	-0.010121942	0.016030181
0.015399601	0.008600712	-0.045016922	0.024147902	0.044267748	-0.028228402	0.02378441	0.041355003	-0.0019244924	0.033050586	0.006065976	-0.025451755	-0.04580457	0.022794668	0.0138458125	-0.021307243
0.04347494	0.044788305	0.045154724	-0.023770904	-0.031550635	0.019983921	0.03906889	0.04104389	-0.035702787	-0.046145238	-0.046582114	0.010178197	0.035176363	0.028215278	0.036641706	0.0014825091
-0.015351832	0.010112204	-0.004861735	-0.016018353	0.009942304	-0.036623668	-0.039952863	-0.040658783	0.02509972	0.042122055	0.049414042	-0.0049900413	0.018625144	0.04078113	-0.017048873	-0.0044739135
-0.008972287	-0.007656969	-0.046553697	0.03885552	0.021257345	-0.006161321	0.02182256	0.0011379011	0.037505414	-0.0059794895	-0.019454991	0.009346329	0.00831642	0.016761828	0.04932804	-0.04299884
0.022756841	-0.041896977	-0.04208244	0.04966973	-0.04320848	-0.008209206	0.022385087	-0.010081552	-0.04566052	0.021867428	-0.020336105	0.019031893	0.034443486	0.021533314	0.013743032	-0.046579003
-0.03904452	-0.0143125765	-0.030514574	-0.046649314	0.03819554	0.030831624	0.028167356	0.04658207	-0.026748706	0.030564714	0.032572176	-0.011212159	-0.03531746	0.037727404	0.035462927	-0.0056144595
0.04343773	-0.016617011	-0.024218429	0.0029443726	-0.036241937	0.0016336441	0.032429826	-0.010637082	0.042235408	-0.04259607	0.0027295575	-0.019965434	0.018351804	0.008128632	-0.026916577	-0.014894284
-0.044106353	0.033202413	0.025052976	0.046726767	0.017526638	-0.02372681	-0.027068555	-0.022774303	0.0049245246	0.010318361	0.007313013	-0.04302421	-0.04031197	0.013169397	0.016438257	-0.008910574
-0.009991277	-0.03359212	0.012110341	-0.043710243	-0.020200122	-0.044158697	0.04574399	0.008416664	0.022523735	-0.045231033	0.004134942	0.047660146	0.032942723	0.0047512054	0.024169158	0.038026784
-0.036896814	0.028305177	0.017471816	-0.038238693	0.032461468	0.01755971	0.04348812	-0.04596702	0.04408825	-0.03466288	-0.0424523	0.0040778033	0.034533333	0.014365498	-0.014849197	-0.041531395
-0.037705325	-0.03694179	0.031305242	-0.013414979	0.023577366	-0.041066814	0.0220729	0.029178906	-0.04822966	-0.039176546	0.029076997	0.023729589	-0.019084347	0.030354355	0.04802415	0.03174529
-0.04576508	0.032264713	0.00281192	-0.04007243	0.002708219	0.0270934	0.0021821968	-0.041847896	-0.041327737	0.01774982	0.0043950193	-0.0026106723	-0.0040598884	0.022096824	0.036235657	0.018419657
0.029375914	0.013387505	-0.022264028	0.028962482	-0.030954862	0.03058407	0.019290913	-0.022908522	-0.043182086	0.0100613125	-0.03448564	0.024863068	0.012016345	-0.0027636066	0.006663166	-0.041757084
0.035281803	0.014441479	-0.044528164	-0.03660159	-0.039368402	-0.015133582	-0.04882523	-0.023955917	-0.02268213	-0.024936033	0.0037787072	-0.007592164	0.002123855	-0.00072105974	0.030594144	-0.031857707
-0.007488668	-0.025152206	-0.010303117	-0.046141304	-0.008368351	0.036774885	-0.04912548	-0.040705275	-0.0025058016	-0.030532766	0.04828242	0.041234855	-0.042704415	-0.017758943	-0.0070171244	-0.0077183954
-0.02113533	-0.044332813	-0.039293326	0.0013557784	-0.043537714	0.03212071	-0.016931523	0.024290118	-0.033274043	-0.036589254	0.027102854	0.040407825	-0.042313337	-0.018448412	0.02184559	-0.032661676
0.038061168	-0.009729397	0.022031415	0.0031389967	-0.026852727	0.030145649	0.0007708296	-0.02569666	0.009216499	0.015854444	-0.038923144	-0.01034062	-0.013639916	0.004311703	-0.04043112	-0.011643685
-0.04093101	0.0030938499	0.037131164	-0.04736942	-0.04905486	0.0019319057	-0.03869591	-0.027740717	0.008625459	0.043527972	-0.018548977	-0.010935187	-0.005731404	-0.045500528	0.008356702	-0.024767077
-0.022926582	0.008200981	-0.015744973	-0.0151239745	-0.0056941025	-0.014231313	0.0017585866	0.0032028332	0.045633722	0.012115657	0.039119113	-0.013806485	0.01559731	-0.03352022	0.008079708	0.003284324
0.048738804	-0.0011357069	0.0046607144	-0.049626004	0.013841119	0.022119407	-0.03944956	-0.047089603	-0.0144171715	0.04644425	0.018747043	-0.013218284	-0.014527965	-0.009210516	-0.017554142	0.029452179
0.03799328	-0.037209153	-0.028452516	-0.006129779	-0.043562878	-0.008813847	0.025615025	0.014158953	0.019650612	-0.048504032	0.009779774	0.020449188	0.013393376	-0.015990902	-0.043191087	-0.006227851
0.047131624	-0.046050992	0.0036331303	-0.004563153	-0.047881722	0.014907528	0.046288144	-0.016381502	-0.0016415119	-0.038533498	0.011333954	-0.03326793	-0.014390014	-0.017768014	-0.0125974305	0.010751106
-0.010593079	-0.029579425	0.031196985	-0.04784689	0.027041066	0.037238527	-0.027038539	-6.245449e-05	-0.047222067	0.030830529	-0.028197099	0.029505756	-0.00075225905	0.027445588	0.03510723	0.017252062
-0.015067123	-0.0304922	0.038356747	-0.04593959	-0.026376832	-0.035504736	0.0428486	-0.025610125	0.0028329603	0.04217216	-0.011700343	-0.047949113	-0.045368027	0.026167165	-0.035460077	0.022540834
0.012885939	-0.022768581	-0.046588015	0.011047959	0.019497026	0.040374134	-5.8688223e-05	-0.038135886	-0.03925711	0.009712696	0.043171633	-0.042990923	0.025409784	-0.0110529065	-0.049500335	-0.0031629428
0.0044299364	0.036473285	0.029342119	-0.009651851	-0.02479043	-0.02523451	-0.024213279	0.043803778	-0.0069963112	0.02562802	-0.0029668212	0.006758176	0.032720756	-0.0040083304	-0.043872572	-0.030637478
0.021697316	-0.008718263	-0.04505236	-0.040603627	-0.006819535	-0.03276547	-0.0036462434	-0.019454038	0.015141416	0.029710028	-0.017890811	0.013344955	-0.007123422	0.0034763105	0.023343038	0.025218058
-0.045084823	-0.0038464665	-0.01085943	-0.020175934	0.03730804	0.03604844	0.049532246	0.020207535	0.021164607	0.04474635	-0.019837989	0.038095783	0.010027848	0.0023934133	0.0472256	0.04544473
-0.030521333	0.011418283	-0.029410506	0.018373255	0.016765509	-0.008269273	-0.0008693561	-0.032820392	0.0032407865	0.021853652	-0.026121378	0.016765188	0.027201865	-0.039740205	-0.048174538	-0.04938359
0.02463368	-0.0071128123	-0.000890933	-0.0292228	-0.015713025	-0.019833898	-0.0154856555	0.016191665	-0.03118366	0.0075917616	-0.038748514	-0.04284451	-0.032117084	-0.03466616	-0.032700323	-0.041458927
-0.02787571	0.022586655	0.04157101	-0.018888557	0.013546873	-0.041006662	0.030576002	-0.014022838	-0.01714605	0.020867158	-0.044835556	0.0061658844	-0.040238727	0.012132108	0.009050287	-0.0011674762
-0.024662172	-0.019384611	0.012221288	0.045277085	0.00045432895	-0.022519946	0.016779784	-0.023051286	0.018546093	-0.015224028	0.0038510077	-0.0012731664	-0.0070452094	-0.03359543	-0.037325777	-0.022755075
-0.006599389	0.041973744	0.0096389875	-0.04908471	-0.028458823	0.028062548	0.00026432425	-0.009118844	0.048957136	-0.026845729	0.049589884	-0.011471402	0.030818973	0.034093354	-0.04584494	0.030640591
-0.049382783	-0.007888984	0.012397479	-0.008515466	-0.028918361	-0.031537462	-0.0035909303	-0.013791181	-0.027811313	0.04576722	-0.032092467	0.03779154	-0.019266833	-0.048753347	0.038417045	0.033456776
-0.00028155	0.015073393	0.030769479	0.010995507	-0.01730553	0.026127782	0.049041126	-0.04598352	0.017509226	-0.0065230727	0.043317642	0.02829193	-0.031020021	0.025622193	0.044587646	-0.047612883
-0.0020794496	0.04336239	0.03424232	-0.023745751	0.0215582	-0.010708906	0.011041701	0.042460527	-0.04368354	0.03661989	0.011722315	0.031382177	0.025062595	0.016490567	0.037708487	0.030374754
-0.023310577	-0.041676186	0.038465884	0.020158302	-0.00591569	-0.03859837	0.011564326	0.026124384	0.012902591	0.030549537	-0.0014443994	-0.043772746	-0.047132004	-0.042651284	-0.027367307	-0.032429338
-0.04960802	-0.031129444	0.03241111	0.04026935	0.018853236	0.043554876	0.013442401	-0.03201653	0.030078206	-0.013624322	-0.048877764	0.039540615	-0.03781581	0.034490798	-0.0041397586	0.0045195445
-0.023734702	0.048929874	0.03479738	0.03254397	0.037219588	-0.032994106	0.024496999	0.00020948797	-0.045751024	0.022707094	-0.038344167	0.018590365	0.023222256	0.041544292	-0.032030717	-0.0030560717
-0.049763944	-0.017674923	0.008631885	0.040036466	-0.034591723	-0.03440454	0.03862102	-0.027785575	-0.0051869266	0.016645562	0.01789457	-0.017439507	-0.03207256	-0.003683187	-0.04156754	-0.010482181
0.049277496	-0.042286146	0.027626026	0.010203816	0.013284985	0.03018019	0.040456522	0.01181978	0.047246184	0.018233363	0.0068271533	-0.03527515	0.0065402985	0.049169842	0.027601507	0.034871373
0.036379483	0.04026756	-0.024765825	0.016030993	0.0014403574	0.022485409	-0.036351778	-0.04121095	0.046495285	-0.006368518	-0.03375999	-0.039489698	-0.015316866	-0.0060610287	0.029801916	0.008789945
0.03247186	-0.022946442	-0.018869877	0.011443637	-0.021429861	0.036262777	0.0214797	0.033469606	0.035406377	-0.03166448	-0.022355283	-0.004697133	-0.012464166	0.048073683	-0.04963988	0.02476963
0.017077755	0.015345145	0.025644545	-0.042275585	-0.03212694	0.0055159703	0.02093384	0.048279557	0.046328608	-0.04345533	0.003113605	-0.03563385	0.026646327	0.013009358	0.047660675	-0.01006465
-0.009932615	0.03588103	0.020097483	-0.026254976	-0.032743312	-0.018267274	0.048612963	0.019335877	0.0031714812	0.029128682	-0.028086472	-0.048601877	-0.015128195	0.029251289	0.021088067	-0.035086192
0.039595198	0.028092515	-0.042039108	0.038419213	-0.013161588	0.039623525	-0.029893387	0.011543311	0.03467894	0.0034781918	-0.029553521	-0.024432575	0.01232915	-0.030804813	0.045137767	0.021939341
0.04607853	-0.00016649812	-0.03318224	9.3095005e-06	0.012505081	0.0046622977	0.04258133	0.027204942	0.03829031	0.0015196092	0.045717184	-0.03669115	-0.03881651	-0.044717263	0.022116806	0.031088416
-0.04726821	0.046750817	-0.020996882	0.018481921	0.007365871	0.003326334	-0.033316005	0.0197624	-0.01846186	-0.030039513	-0.04345393	0.018575396	0.0427959	0.030152727	-0.037588917	-0.03376317
0.026360024	-0.023770262	-0.013827741	0.023942363	0.02601986	0.025449503	-0.03393384	0.010318041	0.041450594	0.0009514205	-0.019543065	0.039264295	-0.013889931	0.04803655	-0.0063539147	0.03444959
-0.047085788	0.03443737	-0.018406678	-0.033688918	-0.0060696825	-0.0024412163	-0.042577744	-0.02396208	-0.025284518	0.045165624	0.026412573	0.027153645	0.02247167	-0.024189806	0.016612258	-0.029977942
0.047886778	-0.0036289804	-0.049981084	0.040474344	0.0025469437	-0.032136954	-0.040243767	0.03802217	0.04692204	0.026169907	0.027735244	0.04927702	-0.025466848	0.03610405	-0.003090538	-0.007645499
-0.009148143	0.015791941	-0.0040728934	0.039168153	-0.03988149	0.0067120567	-0.04645915	-0.045965493	0.008410037	-0.022435104	-0.015327036	0.00054879114	-0.020769252	0.011260308	-0.0043520555	0.03939003
0.0013405904	-0.038825057	-0.039485622	-0.049192872	-0.0034279115	-0.022331	0.030483607	-0.0004587546	-0.017263688	-0.014568388	0.018968236	-0.035499047	0.0168872	-0.014046095	0.010423649	0.017131273
-0.045131575	0.004262518	-0.0408548	0.04356854	-0.018018343	0.04705641	-7.671118e-05	0.008685589	-0.032534264	-0.0095595345	0.00976336	0.029896151	0.045548294	0.049796376	0.0026856884	-0.034098722
-0.03048147	-0.008295167	0.018227648	-0.0027535781	-0.0011617169	0.020487223	0.029779587	0.024028089	0.04802202	0.01931857	-0.011536159	-0.013909735	-0.018943442	0.041974988	0.046144906	-0.0014639497
0.034135405	-0.026425207	-0.020053983	0.007979155	0.025897812	-0.038226485	-0.026719784	0.014594283	-0.041940402	0.016949546	-0.041781187	-0.0008172281	0.0047081113	-0.030091275	-0.016169954	0.03138561
0.022159006	-0.014895022	-0.03917985	-0.04184506	-0.006904412	-0.015795339	-0.04468094	0.011220716	-0.02517935	0.041777458	0.04752947	-0.03214239	-0.014105558	0.029887509	0.013561297	0.038502026
-0.0030855052	-0.025362372	-0.0052766316	-0.030215276	-0.017599724	0.02002981	-0.0024384484	0.0045927763	0.013015952	-0.032296978	-0.046722233	-0.001418937	0.022207227	-0.044548452	-0.048103165	-0.047821727
0.038151514	0.033116985	0.040868584	-0.00047684833	0.017057385	0.041084494	-0.041279435	-0.028131783	0.0042513013	0.01362082	0.022652451	-0.00947243	0.006693661	0.021089684	0.032660928	-0.031371795
0.0034047253	-0.041013647	-0.03520026	0.04531846	-0.004085861	0.007917739	0.020548854	0.022079516	-0.034128536	0.011778843	-0.025262808	0.03253999	-0.029578174	0.010218106	0.020361308	-0.007840693
0.04443511	0.006636154	-0.0037286393	0.038712	-0.019366551	-0.042673636	-0.007881559	-0.01089108	-0.033316076	-0.047486138	-0.00310155	0.042563785	-0.014733981	-0.035453536	0.038774442	-0.01509
-0.02833265	0.0063708797	0.025175285	0.043879475	-0.023470331	0.007533919	0.014376793	-0.046586763	0.008689702	-0.019245887	-0.024234677	-0.03994727	0.014778044	0.03688517	-0.0071772933	0.03152554
-0.007361509	0.04654405	0.01536626	-0.049365055	0.008822095	0.043851327	0.04408809	-0.037038885	-0.042855408	-0.017786752	-0.042731848	0.03460003	-0.019349767	-0.029326582	-0.004230179	0.02870145
-0.026812209	0.004326988	-0.034395076	-0.00053947046	-0.04424249	-0.011668216	0.023739684	-0.013027381	0.03794458	-0.019304156	0.04366347	-0.01845517	-0.040846787	-0.026745474	-0.0068050735	0.0055414066
-0.03569585	-0.033795297	0.00063860416	-0.031168317	-0.02934363	0.029687848	-0.048442867	-0.032460738	0.008391928	-0.00709679	-0.04360912	0.03931934	0.028929736	0.031182658	0.0073770285	-0.04014627
-0.03421532	-0.029063487	-0.00879091	-0.017379593	0.002725292	-0.0020129457	0.033901963	0.021447647	0.011300005	0.048084024	-0.044892978	-0.03795471	0.04450157	0.015242528	-0.027939904	0.046144832
-0.042810667	0.0038437843	0.032492567	0.021303598	-0.02188133	0.01388612	-0.027446223	0.047352348	0.04360142	-0.021232618	0.0013217926	0.049170528	0.042264152	0.018289935	0.016496781	0.021968994
0.0073684566	0.007460855	0.03294081	0.048225295	0.036437545	-0.02962668	-0.04045576	-0.0087277405	0.03740554	0.04413419	0.0444037	-0.0144780055	-0.03856181	0.03758398	-0.020997489	0.0345099
-0.023688866	0.015736584	-0.04924338	-0.014092721	-0.01079049	0.0077588074	0.0010652915	-0.03611027	-0.047789253	0.041114938	-0.01704346	-0.019221796	0.018618118	-0.035674978	0.028869163	0.04133964
0.043191914	0.010551393	-0.025153851	-0.03334248	-0.027543021	-0.04789418	-0.0002912879	-0.032369424	-0.003139399	0.0057085976	-0.025015926	-0.016943775	-0.0457772	0.0106311925	0.020939711	-0.005163729
-0.0020380504	-0.042951144	0.01618464	0.002959311	-0.0382121	0.01364601	-0.037610196	0.028441656	0.007522106	-0.04446429	0.02144077	-0.017212749	0.025006209	-0.032083847	-0.018281914	-0.0028160326
0.0040084347	0.030679751	0.0036487803	0.00844387	0.045527067	0.028699148	0.010853313	0.018138397	0.044672694	0.04852945	-0.0052777044	-0.0168252	0.023043457	0.035977844	-0.04803581	0.0035397187
0.022583973	-0.032146	0.016532931	0.010346841	0.031925473	0.033087377	0.005055286	-0.021905994	-0.02532965	-0.009372652	0.03658719	-0.00202303	0.013186123	0.03736875	0.009328593	0.023753438
0.04454131	0.001518596	-0.044375062	-0.028763771	-0.01601367	0.0015615933	-0.021167053	-0.04561149	-0.035277557	0.0017310865	-0.016638827	-0.029707933	0.023116145	0.026847553	-0.028699327	0.04446621
-0.00015635416	0.048729908	-0.030880416	0.040557805	-0.0324816	0.02115151	-0.030725515	0.024615455	-0.043906428	-0.035762478	0.031047609	-0.04749465	-0.0060204044	-0.012557648	-0.031673215	-0.011809457
-0.022028996	0.020571444	0.010432757	0.029475179	-0.048696257	0.0065811276	-0.0060102716	-0.030607427	-0.018680144	0.011848807	-0.015788734	-0.049887	0.022717763	0.006993223	0.00093301386	-0.023533667
0.039969694	0.045891646	0.029983904	0.041657995	0.028757486	-0.020334447	0.027072344	-0.031865075	-0.01778382	0.016482662	-0.04823513	-0.016399145	-0.033595346	-0.037593044	-0.03183298	-0.0054308884
0.018187646	0.03430632	-0.025195504	0.036871027	-0.011039533	-0.011894487	-0.04074415	0.033613693	0.009989522	0.03805555	-0.028350545	0.0099285245	0.03059708	-0.018207885	0.04254048	-0.040204488
0.0027223341	-0.024445415	-0.025822926	0.0070598833	0.03987432	-0.02966479	-0.04678881	0.01301894	-0.004381217	0.04597782	0.03699701	-0.0065495484	0.038090836	-0.0055209287	-0.0071384907	-0.025409758
-0.03429731	0.011970222	0.026752401	-0.02935108	-0.0013759732	-0.020895863	0.042328347	-0.015951395	0.03214768	-0.03940488	0.0047162883	-0.023952438	0.027850334	-0.0015447512	-0.030604899	0.020147216
0.04491118	-0.015276112	-0.0054901354	0.0074927807	0.012355458	-0.016869675	0.034704912	0.0385159	-0.0046269074	-0.010174703	-0.02251041	-0.03558011	0.00052310154	0.0048988573	0.04349709	0.028636303
0.023415599	0.023604188	0.011952877	0.026546706	-0.04912157	0.027565788	0.0074061267	0.049796846	-0.03105322	-0.020311141	-0.007893432	0.0006641373	-0.028464437	0.04077902	0.01254696	-0.035083055
-0.03971361	-0.02543931	0.009461641	0.049137626	0.024423648	-0.027825106	0.028035942	-0.023234058	-0.025100922	-0.012915682	0.018249225	0.017727409	-0.037258707	0.018345822	0.0043143146	0.03177065
0.011577688	-0.009927642	-0.042224597	0.009262465	0.046177056	-0.024432302	-0.015330732	-0.027902996	-0.010186564	-0.012765873	0.005002558	-0.0044631846	0.043180477	-0.022328485	0.044224095	0.019162107
0.005964063	-0.0037227161	0.0014715567	0.042528834	-0.01727134	-0.024503399	-0.03605113	0.0353765	-0.025177753	-0.04759885	-0.020330418	0.024218712	-0.034657884	0.04926752	-0.017833747	-0.011855114
-0.00032346323	-0.042815544	-0.0132826455	0.044048075	-0.023645425	-0.025008738	-0.0008964054	0.013112988	-0.02383926	0.019965533	-0.019145418	0.007826459	0.048942115	0.04243538	0.023493554	-0.039643537
0.023603428	-0.042624284	-0.033711948	-0.047548115	-0.038310133	-0.04940411	-0.027123762	-0.0011951327	0.03108729	-0.009035908	-0.0024129637	0.016246464	0.042283747	0.008717202	0.019536044	0.03758717
-0.010147177	-0.021280063	-0.031005597	0.047008578	0.04706378	0.028538082	-0.046776462	0.024271537	-0.012854733	0.04419725	0.029577602	-0.025383878	0.024096813	-0.032078017	-0.019439865	0.014140692
-0.04850587	-0.013917435	0.048946116	0.010683395	0.027112756	-0.03965894	-0.014403559	-0.030737078	-0.026840806	0.009742487	-0.009717643	-0.029260457	0.020759407	-0.044353675	0.040836718	0.031963263
0.0061199553	0.025364388	0.04325552	-0.013584636	-0.034984685	-0.04535195	0.0016876571	0.028293613	0.0069186576	-0.014996745	0.016853679	-0.011310935	-0.030874431	0.028885912	-0.039101113	-0.00017117336
0.005620897	-0.0059236884	-0.0050558075	-0.020884896	-0.014394246	-0.026006235	0.0072052106	0.00948149	-0.022148907	0.043045823	0.02447218	0.03542496	-0.0006150007	-0.024757683	-0.038398314	-0.0038628355
-0.017126549	-0.02680229	0.008467484	0.041267645	0.002816856	-0.0025485978	-0.0139707215	0.009791434	0.017159488	-0.00055440515	-0.0021955483	-0.021109093	-0.019654905	-0.036592018	0.037363555	-0.02421615
0.025535632	0.020498302	0.028034713	-0.01091386	0.03122032	-0.0045812614	-0.006525375	0.0067722797	-0.024372661	0.044203166	-0.043572843	-0.049712982	-0.01851388	-0.046418477	-0.01442194	0.028130043
0.03895798	0.04688326	0.03560802	-0.022791063	0.048982788	0.040857602	0.010196947	-0.008159541	0.008107912	0.0351691	0.049025845	-0.031156147	0.042861644	-0.02717259	0.039724912	0.012357593
0.012988057	0.012752738	0.0065708533	-0.04239216	0.037311506	0.0015860908	0.031012308	0.046636973	-0.031917825	-0.04192735	0.004913114	0.04093993	0.041258965	-0.042455163	-0.04553945	-0.03125136
0.0071640834	0.0022329688	0.030052196	-0.042457797	-0.022759939	-0.012462176	-0.036787033	-0.012793053	0.007546317	-0.04884082	-0.023400486	-0.0020808205	0.016692925	-0.048043407	-0.025605941	0.007560849
0.03168155	-0.00046979263	0.049763504	0.025879133	0.03658929	0.012141205	-0.03921466	0.044094924	-0.025771618	-0.007951796	0.025666166	-0.020269025	0.018087652	0.026950326	0.0053671487	-0.043150723
0.03066006	0.046878185	-0.0095673315	-0.008999873	-0.041827224	0.03304467	-0.0057875738	0.04391334	-0.0066557303	-0.0192186	0.006957926	-0.044087827	-0.040913034	-0.01656381	0.007206239	0.04362705
0.035730492	-0.021336902	-0.017057456	0.016315546	-0.03453932	-0.035615504	0.040848423	0.04521655	0.037105408	0.03162929	0.024835337	0.016188812	-0.006389726	0.009192668	0.020712685	0.025351379
-0.012378406	-0.021967804	0.0096951015	0.02699263	-0.029411351	-0.027097547	0.008393645	-0.03166379	0.03743614	0.04110011	-0.0473274	0.02425393	-0.038712274	-0.026920473	0.006547369	0.0014328845
-0.023933565	0.0034336932	0.0103333965	0.04741576	-9.524822e-05	-0.021252979	0.039469395	-0.029089762	-0.012260102	-0.017447937	-0.0018663779	-0.027091349	-0.041623402	0.02966747	0.027041469	0.03869367
-0.018274713	0.017667022	-0.0032616034	0.037036028	-0.037244998	0.040048968	0.0043892153	0.02194414	-0.04017198	0.018967245	-0.0040546656	0.026974354	-0.010682583	-0.026550675	0.013382617	-0.00518658
0.02990884	0.033289146	0.043817017	-0.0053058043	-0.045029342	-0.013760544	0.03039639	-0.022940028	-0.012896024	0.03945801	0.007373154	0.020969871	0.03297049	0.048227917	0.0003137216	-0.044434883
-0.0066879615	-0.04484085	-0.02831607	-0.01883111	-0.037639238	0.026169423	0.0036581382	-0.014417291	-0.018478882	-0.028303051	0.02928057	0.024839591	-0.016275764	0.039234463	0.047722068	0.01899774
-0.03843863	0.006321203	0.008844744	-0.039364588	0.019719567	0.047867086	0.035967533	-0.049229216	0.0126990415	-0.012060881	-0.017386425	-0.017235078	-0.02320577	-0.012928974	-0.0014371164	0.028176595
0.043756496	0.017222907	0.020453956	-0.034313954	-0.0049891956	0.036267806	0.037513245	-0.036216915	-0.033271957	-0.044062283	0.038261715	0.034112457	-0.0005505793	0.021508995	0.029634345	0.027248088
0.030279223	0.015126135	-0.021542216	0.013134126	0.025534604	-0.01886996	0.02549449	-0.00310421	0.021127526	0.023745071	-0.018512476	0.048716974	0.013197396	0.039876785	-0.028562022	-0.04705403
-0.024593199	-0.0491768	0.0024643764	0.0226284	0.01591358	-0.009549249	0.004820429	-0.037212897	-0.035593618	0.019465271	-0.0068373904	-0.012880255	0.012988795	-0.045142617	-0.0135527365	-0.025442565
0.035164844	0.013957951	0.00054646656	0.009994339	0.032753993	-0.01302173	0.012767423	0.043333482	0.032040212	-0.04639839	-0.030333353	0.034706462	0.015425507	-0.022175241	0.014774334	-0.048647154
0.04954597	0.029525403	0.0061818473	0.00517397	0.00840956	0.04990797	0.046083953	-0.01483196	-0.03819015	0.018466208	0.04219413	-0.030493988	0.03430972	-0.04251963	0.020398844	0.043852475
0.026673008	-0.017198443	0.036282424	0.03513663	0.011463236	-0.02742486	0.013113979	-0.023752857	0.014114168	-0.02529781	-0.019438803	-0.046719205	0.038737122	-0.0043032058	-0.020849122	0.021171082
-0.005520571	0.009009112	0.020933423	0.019161213	0.007608045	0.013675783	-0.033616558	0.03785983	0.035798956	0.010100424	0.009623505	-0.038746633	-0.039465833	0.036750507	-0.010193288	-0.042125702
0.038367305	-0.017054807	-0.045696903	0.041425202	0.022482086	-0.015468549	0.043348383	-0.03731682	0.029842068	0.0039005391	0.018100109	-0.04294881	-0.03934612	0.007771589	-0.029369557	0.011383522
-0.018536963	0.007000208	-0.036860906	-0.039700698	-0.041176736	-0.036995936	-0.011145331	0.021316972	0.0116993785	0.009540368	0.04538678	0.00820018	0.03487711	0.048989724	0.029336575	-0.020332491
-0.024234964	0.013008561	-0.03191308	0.0017506592	0.014861409	-0.045232978	-0.0047822595	-0.03183414	-0.016390312	0.031887937	0.004893124	-0.020758558	0.030312661	-0.0042023435	0.045989323	-0.0061773546
-0.04716667	-0.023079908	-0.021744061	-0.024520053	0.014957819	0.0032207258	0.04147749	-0.024822641	0.044921007	0.02594569	0.026340831	-0.042492118	-0.029953921	0.042340253	-0.0016838908	-0.008280456
-0.046373274	-0.039335717	-0.016721118	0.049245503	0.015748132	-0.015492916	0.04320425	0.01680373	0.021419693	-0.007963441	-0.004933059	-0.015473962	0.007181786	-0.03576491	0.03385165	0.025439333
-0.028585304	0.015768636	-0.044830322	0.02333529	0.041337583	-0.012313031	-0.024965359	0.033786025	-0.035448324	-0.036832225	0.009714317	-0.036119007	0.0151682235	-0.03388524	0.0031663403	0.034643378
0.042390946	0.029454175	-0.04932047	0.016486254	-0.025875688	-0.041519154	0.0102906935	-0.0068635456	0.018954787	0.049567785	-0.042185295	0.010694969	-0.043589532	-0.0027837045	0.04647002	0.043521736
-0.035305798	0.035097722	0.049794447	0.036955547	0.017244685	-0.027411759	0.04075185	-0.005108189	-0.04778365	0.042421047	-0.020517563	0.03329612	-0.033246804	-0.014211856	0.03501365	0.046162758
0.021270525	0.048566137	0.008621275	0.027634833	-0.03801485	-0.013211608	-0.020193685	-0.04414866	-0.027183319	-0.04466312	-0.021332158	-0.039974846	0.0059506297	0.038405765	0.011304654	0.03229231
-0.031108916	-0.008865844	0.0057057627	-0.018660925	0.0064093694	0.017341483	-0.04051845	0.04437078	0.009186685	-0.0021244287	0.007160865	-0.008933127	-0.022195531	-0.042499997	-0.048957445	0.046804342
-0.0039430484	-0.03847302	-0.041972853	0.035490964	0.0148722865	0.009608246	0.004217446	0.008150756	0.044113073	0.002612017	-0.008693062	-0.039025545	0.0027466044	-0.028907705	-0.003920175	-0.019582748
-0.047602084	-0.0069471598	-0.02731588	-0.03980144	-0.030869354	-0.01937282	0.041384052	-0.030694379	-0.03735007	-0.037516773	0.035790298	-0.04445031	0.025012221	-0.026158655	0.003952086	0.0115068555
-0.010475971	0.008195102	-0.014505945	-0.034543134	0.02627078	0.014991511	0.045953993	-0.029286016	0.03295363	0.027188372	0.024935212	-0.040781867	0.0069486275	-0.024240447	-0.027439797	0.040958833
0.01434109	0.03755193	-0.024783015	-0.009222902	0.0054968484	0.012679052	0.045815196	-0.04919833	-0.021576488	-0.0475665	-0.0169124	-0.038450398	0.023610387	-0.010430027	-0.024256218	-0.010543656
0.0057189465	0.045464803	-0.0112969875	0.026076082	0.00449308	-0.0028489344	-0.03530394	0.0058797	-0.01382003	0.005779423	0.019037295	0.043065894	0.022563983	-0.04485624	0.04801433	0.023489509
0.02244765	0.040819656	0.01339433	-0.048913516	-0.02571975	-0.015945029	-0.024982024	-0.044574857	0.030686084	0.022460867	-0.024648821	0.007147275	-0.019205594	-0.046733238	0.01867466	-0.040273525
-0.0127395615	-0.018636227	0.04695039	-0.035915304	-0.021750772	0.036963973	0.0045674555	-0.0008972883	-0.0023261905	0.048091237	0.033507053	-0.034010008	-0.02970673	-0.023506666	0.04759321	-0.01548443
-0.016329587	0.016750965	0.010971628	0.0056754462	0.04268643	-0.016977586	0.0063378103	0.04487944	0.0055766106	0.041642036	-0.04335029	-0.03519585	-0.019270658	0.034230437	0.010173321	0.042391624
0.028140675	-0.026436437	-0.01750213	-0.039762974	-0.035126172	-0.004811071	0.037220325	-0.015188552	0.026725259	-0.018136669	-0.03738966	0.035190847	-0.038771283	-0.010776807	-0.008117437	0.01198864
-0.016634047	-0.042822506	0.032566357	-0.04022943	0.04915898	-0.0016680583	-0.020369375	-0.0024074912	-0.017301451	0.033864092	0.0139692165	0.047683682	-0.02395457	-0.03065071	-0.021749748	0.04698688
0.0035412088	-0.041695118	0.034427036	0.04458556	0.044471357	0.008675646	-0.015225004	0.03425988	-0.014765788	0.015285436	0.00086690113	-0.009773195	0.044152293	-0.013226341	0.039056685	0.02822056
-0.018674828	0.028777312	0.0022146925	-0.0012796149	0.027533773	-0.022233224	0.020591903	0.03197218	0.023157988	0.025649969	-0.0069501773	-0.00047860295	-0.010702539	0.01886573	0.0116842985	-0.0068493113
0.033991445	-0.015072405	-0.024036063	0.038842384	-0.009569813	-0.0018852726	-0.010594416	-0.042574253	-0.04588759	0.007833399	0.019484486	0.020570267	-0.009047508	-0.038712285	-0.0330344	0.005520366
0.0028186664	-0.04271405	0.035303023	-0.012926996	0.0020447597	0.033247475	0.013301197	-0.031359434	0.02181298	0.0056662336	0.048779998	0.011518635	-0.019423699	-0.011461578	-0.015812099	-0.016579889
0.0021402724	-0.0354066	-0.044205047	0.012319587	0.02836809	-0.03655697	-0.0057312734	-0.015764356	0.02427752	-0.04035926	-0.020155454	0.027051058	-0.046038628	-0.0013485923	-0.02398758	-0.02808392
-0.03785945	-0.03519813	0.036372755	0.028720524	0.006932296	0.015238132	-0.015519522	-0.008983828	-0.048682906	-0.019288374	-0.016068839	-0.029781355	0.022294853	-0.029657412	-0.016449548	-0.019195521
0.049966667	0.015713979	-0.04330298	0.024225328	0.040667105	0.04023609	0.043228876	-0.033350065	-0.030669082	-0.043729663	-0.042541444	0.0031471364	0.022457782	-0.036442854	0.026003782	0.02222434
-0.03683255	-0.013879191	-0.0049482584	-0.03507582	0.0459595	0.005068887	0.00401666	0.038803566	-0.034415342	0.011789035	0.025153566	0.012752879	-0.038895153	-0.023952652	0.02398679	0.0449525
0.02313042	-0.011267543	0.04894619	-0.02759762	-0.011913098	0.01665664	-0.021208787	-0.02540853	-0.020735955	-0.039679397	0.03046355	-0.014231503	-0.040356886	0.0118105635	0.011735927	0.04946116
-0.011490345	-0.042555608	0.01723672	-0.010091186	-0.032052338	0.040010344	0.027824368	-0.0072429776	0.036397073	0.04114547	-0.016031455	0.0114248395	-0.04215131	0.04408628	-0.025403632	0.04517437
-0.04448874	0.037696067	0.00039943308	0.027081493	-0.049344182	-0.041212022	0.025394801	0.024597261	0.014831293	-0.045847535	-0.011106718	0.008749496	-0.00788603	-0.01250558	0.029331747	0.0037683472
-0.037400283	0.034580972	-0.03137629	0.040640745	0.029938903	-0.008954167	-0.043282177	-0.0068499222	0.019154858	0.0052926317	-0.013734054	0.0068045966	-0.017294157	0.023582462	0.031062756	-0.024433697
-0.006891966	-0.022759164	-0.0029293187	-0.0020319335	-0.033042062	0.009114455	-0.022950172	0.011929296	-0.019084478	0.010271825	-0.04912857	-0.029325247	0.029636633	0.043775905	-0.0068245903	0.010027647
0.004693676	-0.047438156	0.02553327	-0.019201422	-0.010797821	0.012385011	-0.039489783	0.0035462156	-0.024602413	-0.044609047	-0.008294977	-0.015966475	0.03721324	0.025472429	-0.008005343	0.011639606
-0.0030117854	-0.010890149	0.009190846	0.029270578	-0.00013076141	0.027807679	0.020295952	-0.0091405995	-0.017955422	0.032401573	0.030022446	0.00318297	-0.003900241	0.046663914	0.042190794	0.037488494
0.03438968	0.011347868	-0.03445735	0.0037809834	0.02732611	0.02849194	-0.037436295	0.01976366	0.029921938	-0.03510381	0.048281576	0.032575343	-0.01804135	0.0057165734	-0.017681587	-0.0047082193
0.022149552	0.049047593	-0.041737486	0.036355007	-0.028290689	0.0012537464	-0.002796255	-0.025760531	0.007318437	0.0200564	0.042824987	0.020950045	0.035865966	0.027744558	-0.015295088	0.0078932755
0.018948678	0.0063607916	-0.030036045	0.03818739	0.03477374	-0.041634966	-0.04025259	0.0034567341	-0.01758977	0.035958115	0.046774913	-0.039145898	0.04716264	-0.042186987	-0.020625269	-0.044681575
-0.01965673	-0.022710323	-0.038807105	0.034806732	0.006832719	-0.048125353	0.045670357	0.0157975	-0.03467337	0.0035587773	-0.0044642314	-0.044053208	-0.026713837	0.0295094	-0.023198843	0.03243481
-0.039496563	0.03745221	0.01843537	-0.043435406	0.032846693	0.03194059	-0.011664055	-0.049056817	-0.031133784	-0.004176963	-0.006024014	0.0057544336	0.0155326165	-0.0024485104	-0.017903756	-0.035514355
0.03214023	0.016474936	0.00885893	-0.026866114	-0.023116386	0.043531444	-0.03303566	-0.02134775	-0.030774891	0.04834238	0.006641604	-0.019355763	-0.017343678	0.034530107	0.04881643	-0.02387917
-0.02374704	0.036065985	0.026937414	-0.030564083	0.044343542	0.046304833	-0.021244694	0.031321157	-0.030043019	0.0018602721	-0.027119828	0.026561763	0.039179508	-0.046633948	0.014578585	-0.03165071
0.03471527	0.020666543	0.02843852	-0.013064753	0.03887785	-0.029536307	-0.024788594	-0.0023482926	-0.049952175	-0.022549724	0.009652935	0.0040692687	-0.038828887	0.046067957	0.032008674	0.019546185
0.011521112	0.005114984	-0.047085393	0.007465638	-0.001967311	0.04006585	0.017748836	-0.017300107	-0.0053169504	0.030894209	0.03980353	0.028865527	0.03437606	-0.04444964	0.041584823	-0.048886012
-0.036624957	-0.008022595	0.048259404	0.021084297	0.023878004	0.016963724	0.042467955	-0.024619246	0.0142558925	-0.0028423779	-0.045316815	0.02763598	-0.0097851865	-0.008607555	-0.0049142614	0.0309644
-0.015015267	0.023347031	0.026238944	0.0039073713	-0.0059139132	0.048937466	-0.024301887	-0.003509391	-0.011130713	-0.018895257	-0.049544882	-0.0453264	0.04133978	-0.044353988	0.038952384	0.026345972
-0.007381141	0.025419284	-0.018056642	0.03729472	-0.015087675	-0.013645984	-0.006548248	0.032754336	-0.029565407	0.015882205	-0.03443581	0.008388855	0.032140736	-0.02595861	-0.0124182105	-0.04471097
-0.043237187	-0.036966644	-0.000441242	0.030605447	-0.037642013	-0.036097527	-0.024360646	0.020438876	-0.046247065	-0.04736936	0.04048803	0.026796732	-0.01467805	-0.002821315	0.005435992	-0.032713294
-0.013729561	-0.008503545	-0.022472834	-0.019983841	-0.027092552	0.0025436506	0.041227546	-0.016312383	-0.02345102	0.012723353	-0.033989035	-0.0022037849	0.041027162	0.014322881	-0.037573505	0.038199093
0.0407583	-0.0487489	-0.0149603	-0.0036862493	0.039786827	0.01625121	-0.0052034743	-0.014226057	-0.012911476	-0.00978471	-0.04950712	-0.033363543	-0.043424334	0.022921931	0.04856349	-0.047503926
-0.018363535	-0.03806945	-0.00019123405	0.033949923	0.018314507	0.009313595	0.02272686	0.033499572	0.009937536	0.035804342	0.005393766	0.044875268	-0.005050767	0.012398612	0.027009536	-0.033175603
-0.0048989877	-0.041662432	0.04841136	0.009887099	0.04376172	-0.016208481	-0.03470807	0.046514895	-0.014005564	0.03773621	-0.013068628	-0.039789546	0.040063452	-0.037821136	0.01080215	-0.012175847
0.0070791356	0.040171575	-0.040948678	0.016973864	-0.029175377	-0.041185297	0.048430588	0.04731177	-0.027667059	-0.022781933	-0.0282874	-0.007827569	-0.039715268	0.021992948	0.0140305795	0.03834815
-0.00903951	-0.020552624	0.03591987	-0.03485005	0.048172202	-0.025985718	-0.0141294375	-0.034592103	-0.029991305	0.04666419	-0.037503254	-0.0029948838	0.027975451	-0.020863807	-0.04173132	0.001442302
0.02175412	0.0041742437	-0.0119170435	0.009885203	0.0013789646	0.027399871	0.027329255	0.045632187	-0.00046698004	-0.02048309	-0.04532584	0.020890322	0.004545439	0.026708279	0.0038043149	0.019694474
0.024714794	-0.03261112	-0.021837616	0.041502606	0.047277663	-0.021986281	0.049001884	0.0012246594	-0.037478197	-0.042728662	0.008890547	0.018580008	-0.03785678	0.019559514	0.0030419454	-0.025259674
-0.015703179	-0.04130292	0.010041356	-0.030772436	-0.028079463	-0.026640428	0.032189075	-0.019249618	-0.0053660497	0.021910992	0.008732367	0.045829106	0.001409255	0.035071697	-0.049317982	0.020245407
-0.007982649	0.038641427	0.022073004	0.0010673776	-0.036252998	0.0020641312	0.024903003	-0.03315741	-0.02059784	0.018376302	0.042817857	0.042594742	-0.03407686	-0.02221111	0.04145967	0.041613843
0.005837906	-0.03109814	0.00847397	0.04296458	-0.034061693	-0.004809428	-0.02826686	-0.046403147	-0.032980133	-0.023976123	0.045986366	-0.020580804	0.044559907	0.025490116	0.004456412	-0.005047761
-0.027611746	0.015789602	-0.014130056	0.031986002	-0.03634113	0.043654	-0.008825161	0.028663669	-0.0059023276	0.025099944	-0.007444106	-0.041985177	-0.040166818	-0.046151485	0.021196578	0.009097375
0.04166845	0.010617863	-0.018199932	-0.0132274255	-0.021469165	0.042859923	-0.03058095	-0.03126657	-0.039857138	0.041320715	0.038374137	-0.0070793517	-0.025255954	0.0058597215	-0.039121844	-0.0029527768
-0.049062517	-0.03224331	-0.00975145	-0.048515607	0.036853615	-0.010290049	-0.02957207	0.023086336	-0.04939406	-0.006455291	0.044966888	0.008227337	-0.008867778	-0.014751233	-0.045690536	0.0057619587
0.0012990944	0.038834605	0.044852007	0.022352066	-0.047965385	-0.0063565	0.03442237	0.017069552	0.027672205	0.04515661	0.02744982	0.025770698	-0.013441265	-0.0074399114	-0.040382553	0.0042964704
-0.006108474	0.016966414	-0.015602469	-0.03381729	-0.029157246	-0.041434456	0.012804899	-0.036615837	-0.03820269	-0.018261492	0.03384925	-0.04064064	-0.03396832	-0.042579234	-0.025600744	-0.020378137
0.039953437	0.030933212	0.02205417	-0.005515266	0.028118882	0.0022175685	0.03440169	-0.04293393	-0.03657204	-0.0014469847	-0.044788707	-0.040724147	0.03886738	-0.008211803	-0.010634147	-0.022279251
-0.012797259	-0.007742811	-0.042570867	0.04345293	-0.0026965253	0.0012925863	0.022353578	0.04427023	0.030716095	-0.014548898	0.026526991	-0.00044320896	-0.034821223	-0.010619234	-0.030581165	0.025922451
0.009747386	0.04435015	0.036686305	-0.019734323	-0.023685409	-0.04267024	0.028876517	0.049408425	-0.006913651	0.043613855	-0.02750038	-0.0076770186	-0.014468752	-0.027391577	0.034342717	0.019260135
0.022688303	0.019784931	0.009462535	-0.040902793	-0.03776262	0.008081652	0.03067625	0.02241807	0.018962394	0.046283934	-0.043145515	-0.042753816	0.041209128	0.024383131	-0.036875475	-0.028306235
-0.01027732	-0.012392212	-0.039292574	-0.019327177	0.04485437	-0.022727478	-0.045692503	0.02762356	0.034600172	0.03839531	-0.012464903	-0.029529393	-0.0014822595	-0.041848995	0.04007064	-0.029772092
-0.0276698	0.02154987	-0.005843006	0.03291099	0.032152567	0.017718207	0.0408698	0.0062903166	-0.047273792	-0.0029796138	0.033823077	-0.048257567	-0.01894387	0.026462067	-0.04224999	-0.0006036535
0.02096865	-0.025261236	-0.022160769	0.003108073	-0.028816784	0.04493132	-0.01870308	0.0077381358	-0.023051381	-0.0059816353	-0.00085569546	-0.011284828	0.03096341	0.0068413615	0.0471928	0.035020415
0.037304115	0.016255263	-0.032124855	0.00025743246	0.048078742	-0.013706934	-0.022135234	0.046197597	0.049239542	0.011726417	0.04210237	0.00813235	0.029562954	0.049585197	0.023250427	-0.02808491
3.869459e-05	0.046563055	-0.020007705	-0.04637214	-0.041517414	0.032672558	-0.04393978	0.04697079	0.027496014	-0.031650804	-0.022273911	-0.03932216	-0.03335903	0.048379097	0.019196596	-0.015525173
-0.048439708	0.040958013	0.005708754	-0.026388396	0.022246506	0.024049569	-0.026472105	-0.042918373	0.037744712	0.004169248	-0.00996523	-0.03534962	0.014877271	-0.03862331	0.040007677	-0.027296662
-0.02830918	-0.043636348	0.00028002262	-0.036629975	0.015330378	0.043964993	-0.004188575	-0.03572329	0.0038955696	0.019254934	0.014683571	0.004908763	0.0345434	0.020957116	-0.021065867	0.017920796
0.013338055	0.04558524	-0.0060350783	0.017276261	-0.0116486065	-0.03773191	0.042015497	-0.010723043	0.045045946	-0.025051057	0.01977123	0.030824397	-0.037363697	-0.024869204	0.0044330135	0.010473549
-0.015143953	-0.049616363	0.031772006	0.008543003	0.033230435	0.0426162	-0.036604166	-0.024799204	0.017325427	0.008108281	-0.045931876	-0.018724274	-0.03607277	-0.01980269	0.049507145	0.0477139
0.024245348	0.026165377	0.036188815	0.00988064	-0.029153658	0.020213272	0.04983521	-0.047896862	0.040971193	-0.042612888	-0.018455029	-0.0005773902	-0.04218222	-0.038924158	-0.030539298	0.02207942
-0.044050016	0.021372963	0.015246715	-0.002118349	0.044990096	0.047864806	0.047191832	-0.0090605505	-0.003962267	0.04443537	-0.018800093	0.028322209	0.04600862	0.028350104	0.03579053	0.047393214
-0.033801842	0.029084	-0.026355242	-0.0031018257	-0.0332865	0.0008309595	0.017639842	0.0063804276	0.0042637363	0.022482697	0.04828315	0.037135754	0.0057603233	0.012095772	-0.024863018	-0.015442561
-0.011482108	0.036804404	0.043016184	-0.024946546	-0.035015203	-0.017892398	0.04897357	-0.04769	0.03166828	-0.049374748	0.03433745	0.04616059	0.014310572	-0.006867718	0.017410006	-0.03199979
-0.034303475	0.04169706	-0.041989077	0.03167082	-0.04013157	0.010407925	-0.020644223	0.0170323	-0.036483895	-0.042696964	-0.04604726	-0.040525246	-0.0072219	0.001562953	-0.04674492	0.040074144
0.01371238	-0.039336003	0.038947854	0.015256237	0.03602488	0.016015735	0.011500895	-0.037109066	0.011138	-0.017469682	-0.022187889	-0.01900046	0.043963563	-0.012701668	-0.0480495	0.023994397
-0.041709077	0.029043268	0.022092234	0.04839268	0.044756655	0.041583505	-0.048452556	0.004172504	-0.016195059	-0.025045335	0.0035043843	-0.041051947	-0.04986657	-0.02399887	0.0004589334	-0.02825172
-0.000107981265	-0.027592434	0.03228705	-0.04387436	-0.007853817	-0.022921551	-0.04407641	0.0049960837	0.00061923265	0.0030457377	-0.016718697	0.04603174	-0.004844606	0.03501198	-0.03630797	0.045493115
-0.0019903667	-0.008908175	0.045881394	-0.015038919	0.047597323	-0.037235666	-0.0019427054	0.03797168	-0.011839997	0.04562911	-0.029678643	-0.024418091	0.0397535	-0.00024199486	0.0028213263	-0.0030672178
-0.02306118	0.020018015	0.0373731	0.02922343	0.04556885	-0.015525889	-0.018832697	-0.020788146	-0.040905237	0.01678859	-0.01023861	0.018159423	0.049411427	0.02746823	-0.013771642	0.004984401
-0.021341503	-0.033994928	0.035073604	-0.03356061	0.030948106	-0.025087524	-0.024664093	-0.011401154	-0.024822379	-0.019837106	-0.043355893	0.037214886	0.0078732595	-0.027025914	-0.042807102	0.021788027
-0.04594009	-0.0061090216	0.04461309	-0.018268038	-0.039878953	-0.04873779	0.013836	-0.02560519	-0.026937425	-0.033513546	0.015851144	0.04416163	-0.026140202	-0.028082563	0.04151335	-0.02786578
0.025328267	0.008162748	-0.041071035	0.014187191	0.048757914	-0.005378522	0.04921085	-0.04200809	0.0045018196	-0.026551425	-0.032621577	0.027015198	-0.03066795	-0.019700814	0.0034836754	-0.030215992
-0.02292198	0.017771069	0.04329313	-0.047147073	0.042531695	0.00036244467	0.006954409	0.023709808	0.047156338	-0.034323648	0.046135496	0.014556278	0.041742753	0.04272527	-0.014134027	0.010855865
-0.03651433	0.048888136	-0.03053745	-0.028041113	0.0027897246	-0.007603109	0.033716444	-0.016262233	-0.014781177	0.009103786	0.016320754	-0.012315549	0.017120566	0.04019406	-0.028137922	0.039364386
0.010050617	-0.011183679	-0.00582429	0.037192274	0.022920016	0.0124722235	0.005638063	-0.03664305	0.026357625	-0.0023036003	-0.026384426	-0.03748014	-0.049463462	0.010014009	-0.015502535	0.023983587
-0.018655203	-0.0061102025	-0.020637536	-0.009457756	0.017479483	0.010469567	0.012565646	0.029357564	0.008022569	-0.016813852	0.010484517	-0.033109237	-0.019629812	-0.02705586	-0.000700891	-0.0028956532
0.046059262	0.03859966	0.023275185	-0.02859602	-0.011347689	0.039399456	0.00825306	0.02236909	0.017214645	-0.015678953	0.03834558	-0.0096408725	-0.0016162619	-0.019058168	0.049935963	-0.035081077
-0.012247503	-0.0034469254	-0.03651136	-0.04727446	0.04755086	-0.0067071207	0.012146257	-0.005769588	-0.047628045	0.027471397	0.0016996264	0.023253907	-0.020801473	-0.02481736	0.0076301694	0.029399183
-0.017084192	0.046075825	-0.044104625	-0.038061213	-0.0037753955	0.0006005652	0.0053629763	-0.048420396	0.0407073	-0.027853847	-0.024128234	0.0045800693	0.0047288053	0.0068230033	0.0438733	0.00072519854
-0.013750337	-0.006520532	-0.022263383	-0.04596243	-0.031976596	0.008283876	-0.018216442	0.030017387	-0.0051960237	-0.014770545	-0.028622424	-0.005877413	-0.0040609613	0.03307301	-0.041421544	-0.0415385
-0.03476455	-0.0024359226	0.0063197017	0.00061942264	-0.04199176	-0.015963115	0.047873665	-0.040351093	0.017074976	-0.014492143	-0.026596023	0.005549334	-0.0040613897	-0.031265333	-0.0064309016	-0.014478575
0.044617202	-0.019942118	0.044071425	-0.018377624	0.032217752	-0.049915887	-0.022652388	-0.0073413365	0.035150025	0.006020166	0.03417467	-0.029073764	0.024107542	0.025630306	-0.04786227	0.041020583
0.012576845	0.0071834438	0.029357467	0.027569298	0.02038518	0.0112486	0.03969684	0.030619431	-0.03055997	0.031925503	-0.0060106516	0.04009709	0.0104705095	0.005670417	-0.019630456	0.02047212
0.01983944	0.017217342	0.048207786	0.042401228	0.0015720502	0.0053568	-0.03827969	-0.027676487	-0.005466569	-0.0034986958	-0.016464971	-0.010545611	0.015395489	-0.014259435	-0.037730537	0.0045164935
0.011144232	0.026082996	-0.04455135	0.037100267	0.013149131	-0.035744	0.00079475716	0.04588065	-0.02225001	-0.020500375	-0.007978417	-0.04201039	-0.00024791807	-0.03594191	-0.016999923	-0.022126889
0.03353187	-0.008137893	0.002631653	0.021664891	0.017666068	0.007212866	-0.0076078773	0.016694654	-0.025185311	-0.009697806	0.016812097	-0.044362128	-0.04906645	-0.009970237	0.021339778	0.022500705
0.023020182	-0.039939296	0.0050420277	0.046458017	-0.01924727	0.023622606	0.018121075	0.04023311	0.012387801	0.016483735	-0.005197037	-0.02037388	-0.004410196	0.00089757517	-0.012724899	0.032021154
0.0133309625	-0.014327705	-0.011490475	0.04396342	-0.038169563	0.023388099	0.01739185	0.03637198	0.030391384	0.010062885	-0.038085185	-0.04825765	0.020340156	-0.013745345	0.04854915	-0.044503927
0.04650328	-0.040385984	-0.010704469	0.041801993	-0.0213431	0.029088113	-0.04838431	-0.03558917	0.008953415	-0.04148978	-0.044434942	0.01429316	-0.0040438883	-0.041347243	0.04712638	0.022401962
-0.04848354	0.048017945	0.034509864	-0.008221768	-0.03670951	0.022999618	0.010992289	0.0028715245	0.028587293	0.04030868	-0.009143569	-0.0038181543	-0.022097612	-0.034742106	-0.030906785	-0.015410423
0.019537892	-0.03859942	-0.030079484	-0.0203107	-0.045444574	-0.03177743	0.038746838	-0.009727299	0.04337598	0.032176707	-0.013449382	-0.029188026	-0.0379902	-0.041123427	-0.00049154833	0.029663388
0.01359823	-0.04232166	0.020424414	-0.029958738	-0.038010012	-0.03560555	0.018140879	-0.04174427	0.038412523	-0.043861162	-0.028814495	-0.041444827	-0.027276887	0.031697262	-0.0031834245	0.014380228
0.010095917	-0.035033476	0.010237075	-0.0058127046	-0.030932307	-0.009902369	-0.033087898	-0.038654458	0.042640876	-0.014306523	-0.032013968	-0.03505566	-0.011846125	-0.0065776333	-0.03167807	0.009055413
0.018049207	0.023161028	0.0023580901	0.018699799	-0.01291417	-0.013562478	-0.0053652525	-0.010511003	0.046710465	0.011005688	0.011732914	-0.0061126575	-0.025996758	0.036752712	-0.033009663	0.020807099
-0.049713075	-0.021059204	0.04814491	-0.025534272	-0.038861144	-0.0142349005	-0.006125413	0.003216397	-0.017352879	-0.032254864	0.014647011	-0.02218393	0.03622948	0.034325566	0.024224427	0.007510137
0.012474455	0.038189318	-0.030573023	0.017364118	0.049725328	-0.032678165	-0.022389233	-0.041695856	-0.021804666	0.015003633	0.043331493	0.029363785	-0.036123324	0.039813783	-0.033346616	-0.033213247
0.009512447	-0.028245378	0.00554676	-0.0018085353	-0.008159518	0.0066258423	-0.046608984	0.040862832	0.011182595	-0.012397669	0.017736781	-0.023187136	-0.012282539	0.026625086	0.0029459111	0.03984106
-0.03788028	0.0024758354	-0.026284648	-0.0460305	0.043932807	-0.0002766624	-0.034329318	0.0037234798	-0.011491835	-0.003278613	-0.037712585	-0.049862232	0.013083879	0.008154046	-0.030128146	0.028453995
-0.01270473	0.013173286	0.04441097	0.044532787	-0.034084283	-0.024397362	-0.038166165	-0.023448456	0.038733367	0.03890801	0.0058323853	-0.019045426	-0.04172039	0.0018338673	-0.01284752	-0.040951706
-0.005426906	0.027504813	0.00015926361	0.04331689	-0.04519645	-0.01564566	-0.01596409	-0.048835754	-0.012946926	-0.04510808	-0.02184838	-0.038538326	-0.02735423	0.014364507	0.0058715343	-0.037304483
-0.044413257	0.037521098	0.005614601	0.033372667	-0.0047927015	-0.015881456	-0.0022673123	-0.044761803	0.030157495	0.0009669289	0.04025842	-0.04649347	0.017897252	-0.026166404	0.006545186	0.013943423
